3
784,256,128,10
0.04264612,0.039369304,0.024583457,0.008427208,0.000516473,0.026559332,0.0046703615,0.037294548,0.0154998405,0.022499053,0.027489485,0.030720072,0.031463154,0.027331514,0.027875246,0.01621048,0.0442405,0.011090517,0.015778229,0.03825367,0.03758537,0.003706868,-0.017576924,-0.0030882852,-0.008495834,-0.008855084,0.038843837,0.04560643,0.013871379,0.038761113,0.04360139,0.020247119,0.033019938,0.02273027,0.018748028,0.0029217056,0.011832219,-0.0019707887,0.0069395653,0.048734415,0.016373614,0.02422806,0.032972425,0.0064067002,0.0022444054,0.006746288,-0.0047081253,0.0021389248,-0.0054042647,-0.009401755,0.015246859,0.037839476,-0.013465282,0.04401244,0.0056601195,0.008808086,-0.010053432,0.038383055,0.021122983,-0.00076443225,0.04690871,0.03690454,-0.022301132,-0.022094898,0.043325827,0.0038319365,0.041012816,-0.004056206,0.012915945,0.032485545,0.027233027,0.009566062,-0.01872839,0.0066414056,0.025111724,0.055492066,0.016956028,0.018232869,-0.0010686293,0.014090287,0.022976767,0.015741324,0.004119649,0.02797882,-0.008149831,0.026755767,0.001333788,0.04342549,0.039395824,-0.022028724,0.017596649,0.018615006,-0.002216643,-0.039413832,0.038251556,0.07167827,-0.10054669,0.044844676,0.123812854,0.114689894,0.07976882,0.054601587,0.01429749,-0.03331338,-0.11695399,-0.030243954,-0.01621122,-0.0016678427,-0.0061189826,0.0038851968,0.012021212,0.036135856,0.024920074,0.012483455,0.032393843,-0.0009934674,0.016082149,0.035679687,0.018693054,0.09179736,0.002130811,0.030356145,-0.02002047,-0.059856225,-0.09103907,0.145931,0.18381073,0.13617116,0.0411914,0.029649002,0.11013334,0.15259047,0.003668107,-0.17502011,-0.15408292,-0.05707743,-0.020142874,0.016037183,0.024263872,0.048489224,0.0247096,0.033903956,0.022207627,-0.0026731894,0.0036098056,-0.043792576,-0.012983081,-0.015462691,0.03754235,0.11221595,0.10622573,0.12398516,0.059892613,0.10542056,0.055127345,-0.03555952,-0.0008639454,-0.050807375,-0.07325626,0.0064280475,-0.009890381,0.005858486,-0.109596685,0.016296636,-0.017018018,-0.046678334,-0.0043205605,-0.015136937,-0.015624389,-0.007865604,0.029177481,0.029142052,-0.034908134,0.006193656,0.02781809,0.057209108,0.035259575,0.11476434,0.07890155,0.0694154,0.12991749,0.12480071,0.0434298,-0.052490216,-0.051842533,0.05646813,-0.016222466,-0.092557564,-0.061060816,0.021440597,0.009853116,-0.06227687,-0.043760896,-0.0361105,-0.0038454102,-0.006750228,0.033176288,0.025406757,0.03961071,0.0275997,0.012907575,0.09566129,0.056677856,0.014625609,-0.10860729,0.057171926,0.006801897,-0.06261747,-0.014155201,0.141698,0.09249349,0.082804166,0.09082073,0.06938967,0.028694337,0.024973636,0.013059264,0.09089204,0.013316163,-0.043684267,-0.000554663,-0.034298647,0.025542507,0.0019647079,0.017564258,-0.007870916,-0.021441527,0.0025432333,0.1487969,-0.009063908,-0.07832163,-0.05684961,-0.032243017,0.07833918,0.022294287,0.010415629,0.07136382,0.04944255,0.05584896,0.114963405,0.108166456,0.10064035,0.09646279,0.0999902,0.03522141,0.08741224,0.071430795,0.11442086,-0.04719203,-0.03967456,-0.027747171,0.026361277,0.01511904,0.01083456,0.02321188,-0.0057477485,0.073603325,0.08901275,-0.047204167,0.092954,-0.0385945,0.0036317043,-0.02880183,0.07013687,0.16395906,-0.090978466,-0.13386585,-0.10771205,0.019098988,0.016363885,0.15654644,0.11038026,0.013721395,0.0755133,0.15582679,0.12538962,-0.08491576,0.044112977,-0.047665283,0.03200727,0.025514966,0.018644182,-0.006158079,0.048507445,-0.046246294,-0.005558276,0.013960769,0.037783105,0.0795284,-0.05891395,0.023565523,0.00028639744,-0.061275598,-0.25088364,-0.2328746,0.0019635234,0.064260036,0.14118224,0.0482778,-0.020293398,-0.052619953,0.057108946,0.12061485,0.09126246,0.008369464,-0.021914126,0.022132033,0.002965354,-0.015875565,0.017323637,0.04549271,0.028935933,-0.055121135,-0.10910487,0.096800305,0.046419404,-0.05338477,-0.031130051,0.047133427,0.006079033,-0.24265225,-0.38767856,-0.27409324,0.01744644,0.061835434,0.05230294,0.07041083,-0.13282466,-0.06401522,-0.013818905,-0.030277036,0.070924714,-0.048956707,0.01379008,0.008095462,0.016436761,-0.019825133,0.04856426,0.010071145,0.03496626,-0.04599356,-0.10171419,0.14363024,-0.019377062,-0.086641505,-0.05246893,-0.1347892,-0.38565207,-0.469629,-0.5077858,-0.17715326,0.044728223,-0.020628514,0.04456379,0.013085307,-0.11527086,-0.07390275,-0.06586552,-0.07030182,0.05732578,-0.05684283,0.014669561,-0.030983677,-0.013549959,0.027493002,-0.0015847347,-0.0056563467,-0.016046878,-0.0042846426,-0.08642003,0.044991124,-0.100687034,-0.25673825,-0.23696987,-0.30521357,-0.48745084,-0.4476766,-0.123348035,-0.04955141,-0.09662201,-0.009427446,-0.057843685,-0.05341006,-0.11243441,-0.071720846,0.025384938,0.013935803,-0.03420483,-0.05772537,0.037539866,-0.023725182,0.047386732,-0.01244461,-0.010167163,-0.0029838637,-0.029448656,0.062097196,0.06482077,-0.057348467,-0.18081178,-0.34208208,-0.30828762,-0.3327477,-0.2962114,-0.22034083,-0.20606464,-0.110976346,-0.08143628,-0.122876555,-0.079883054,-0.16880167,-0.2490111,-0.028305251,0.11125989,0.0127438065,-0.022445515,-0.09035548,0.033677746,0.03749893,0.012475697,-0.007362293,0.022052323,-0.007898353,-0.044543486,0.12543027,0.117110394,-0.062387034,-0.19925082,-0.33517203,-0.16262962,-0.19994569,-0.31619596,-0.25490102,-0.116492875,-0.09807392,-0.118525386,-0.10897526,-0.16682978,-0.19939864,-0.2530833,-0.062807545,0.045002922,-0.12524115,-0.062387627,-0.1290116,0.010089852,0.03530249,0.049557723,0.04498547,0.011811087,0.020350972,-0.010257492,0.1249058,0.11522225,0.011096397,-0.14316186,-0.22076216,-0.06680067,-0.050005995,-0.21986617,-0.2074689,-0.03806374,-0.11576366,-0.15098448,-0.17137448,-0.24376106,-0.41966823,-0.18996455,-0.11122446,-0.037084077,-0.13812372,-0.15804297,-0.06116989,0.03640523,0.06573799,0.055447448,-0.017341381,0.0011100528,-0.0011211708,0.0057042167,0.20826663,0.12139042,0.0860518,0.16605453,0.033819105,0.08085542,0.075579375,-0.10122879,-0.09195843,-0.09919481,-0.0809861,-0.15125202,-0.19519882,-0.38073322,-0.39334127,-0.16032164,-0.08740006,-0.14356488,-0.16778265,-0.08133967,-0.13401833,0.064341836,0.03682486,-0.012550978,0.010122845,-0.0053727278,0.011892901,-0.059997432,0.051914938,0.029415874,0.043190747,0.23610704,0.12546125,0.12838767,0.02533367,-0.0024958367,-0.027244948,-0.12769073,-0.17682372,-0.25746417,-0.41895404,-0.4196092,-0.26876506,-0.1203573,-0.06293704,-0.19315751,-0.0954008,-0.037695874,-0.10041005,0.009398124,0.05274063,0.011546366,0.038434137,-0.011281481,0.010545176,-0.044425614,-0.00092943653,0.04240162,0.08930646,0.22318462,0.012560913,0.031009374,0.0904333,0.13762379,0.06721838,0.070385374,-0.17067261,-0.33784002,-0.23308657,-0.114464015,-0.15554525,-0.11008956,-0.091342285,-0.101559736,-0.09037757,-0.08983108,-0.09760127,0.032348815,-0.0027236172,-0.0129110385,-0.01764877,0.045706686,-0.0058916723,0.0028257123,-0.04799014,0.032188453,0.12864248,0.05023011,0.008680106,0.0052928803,0.08964019,0.15314598,0.17070585,0.07024342,-0.025014767,-0.101471506,0.1491744,0.13153234,-0.012033069,-0.03519828,-0.046340432,-0.042762436,-0.020772899,0.083962284,-0.043480735,0.02243836,0.001982195,0.040125698,0.03209919,0.025002459,0.055377055,0.09456262,0.10375589,0.051057015,0.03153118,0.085279875,-0.00044914376,-0.05064798,0.028239712,0.13144095,0.114123,0.13347962,0.23518774,0.20637597,0.18702121,0.17664121,0.12517777,0.17780222,0.08438033,-0.037721727,0.12950444,0.13453059,0.06448563,-0.0032642384,0.024624065,-0.019435761,-0.0024164564,0.04166301,0.057030644,0.09896094,0.11328044,0.16507806,0.10349387,0.18492687,0.2518529,0.14117996,0.08811718,0.092594765,0.008083621,0.14992519,0.19010594,0.13875966,0.13970354,0.15528978,0.19232869,0.19695662,0.0769013,0.17630856,0.27052873,0.040737826,-0.025335977,0.03159451,0.04806804,-0.003905172,-0.018521713,0.04255518,0.0005082457,0.031508923,0.056182515,0.09167241,0.0836403,0.14230597,0.14850694,0.14101335,0.020940594,0.02962058,0.035185043,0.064187504,0.055414703,0.04054126,0.11478946,0.23445845,0.18755963,0.13518952,0.14339444,0.26000974,0.29501045,0.12890126,0.026328793,0.0119039,-0.0032097949,-0.009613706,0.035637263,0.00053483126,0.030636432,-0.0026752786,0.050311614,0.060960826,0.062916346,0.09501051,0.0070437244,0.040647212,-0.04657706,0.004197462,0.020498803,-0.034083746,-0.016965518,0.05934534,0.070855446,0.1876633,0.12520385,0.056717232,0.14050576,0.17607087,0.15778711,0.13072124,0.07870412,0.01739444,0.0018519223,-0.006852402,0.021342514,0.022370948,0.0009382779,0.0045059496,0.019742787,0.03462568,0.15855317,0.2241557,0.190801,0.06623024,0.03984329,-0.12601766,-0.09036977,-0.21257126,-0.24034391,-0.04910219,-0.033881303,-0.068662085,-0.116687596,-0.11968836,-0.017175093,0.019559713,-0.03607018,0.004016661,0.0019784425,0.0074496022,-0.0154481875,-0.0129100885,0.0133117065,-0.010274576,0.019875078,-0.018058894,-0.01652571,0.012374729,0.062460802,0.098676294,0.07634632,0.024264924,-0.016502414,-0.028118493,0.04761497,0.006142935,-0.072956175,0.026942667,0.014269798,-0.028372874,-0.038588382,0.0377572,-0.006568051,-0.044960275,0.0050890907,0.04011648,0.044751514,0.020512635,0.017593121,0.013601201,0.025205871,-0.011768863,-0.0027930012,-0.013464663,0.009714112,-0.009425102,0.0029150522,0.03196271,0.04845367,-0.0131382635,-0.0007805149,-0.0031087114,0.01690186,0.019644013,0.0189713,0.025458831,-0.00065482856,0.05124559,0.0029270384,0.010984246,-0.009013918,-0.0008451681,-0.021766994,-0.006918443,-0.019548433,0.047558937,0.025624132,0.035628993
0.047995005,0.027365766,0.040466163,0.014606515,0.0014221873,0.027337193,0.059669178,0.04016142,0.009314939,0.033594005,0.06101598,0.04471791,-0.0020347512,0.060548156,0.028432798,0.017886914,-0.0038042343,0.04355937,0.033810273,0.014938983,0.037314776,0.038939517,0.059423544,0.03930446,0.039499577,0.029985294,0.023564018,0.019466653,0.007833665,0.047300573,0.020464033,0.019776009,0.062655106,0.0037019318,0.060127717,0.048073087,2.235797e-05,0.017244855,0.014556186,0.046094026,0.007218341,0.05257794,0.022459812,0.060265303,0.05148306,0.04122704,0.051651534,0.036182806,0.023629464,0.023056135,0.01157095,-0.0017525246,0.05248611,0.060587287,0.01020007,0.047131952,6.3547894e-05,0.039784987,0.007975189,0.0376296,0.060223233,0.028417837,-0.0114316,0.0041905395,-0.0042592394,-0.015737938,-0.028578704,0.026138509,-0.0075820456,-0.03401452,-0.031671252,-0.011636299,0.039645087,0.029728407,0.11810544,0.010123252,0.049091697,0.029016268,0.022633135,0.06394583,0.058204975,-0.00010560081,0.01645824,0.03257275,0.041776184,0.06132362,0.062376767,0.040487703,-0.0038068471,0.019749384,0.009971053,0.005531,-0.011124863,-0.0506788,-0.04456421,-0.013277249,0.011075915,-0.07805721,-0.041672662,-0.13588685,-0.123674795,-0.106967255,-0.104529016,-0.070090726,0.031659987,-0.026059717,-0.038024377,-0.0058915955,0.033448763,0.059228234,0.005108764,0.019357834,0.010673525,0.017518327,0.05494469,0.011299912,0.0061649405,-0.025518676,-0.068456635,-0.033499267,-0.113670565,-0.06553392,0.03713249,0.1463019,0.0026664995,-0.107336685,0.03448285,-0.06308279,-0.03045275,0.04500224,0.04758633,0.09250191,0.043280955,0.11154018,-0.00140036,0.0228146,-0.014350133,0.020217024,5.127884e-06,0.061270155,0.029947177,0.008970741,0.029663552,0.011645513,0.050763562,-0.0154954735,0.08703241,0.019119022,-0.10647196,-0.09372368,-0.044820953,-0.013087037,-0.034347143,0.019299567,-0.046317156,-0.08182467,0.039505452,0.13056313,-0.038653858,0.005336413,0.044667214,-0.029102251,-0.06567273,0.085230105,0.030377822,-0.0008691746,0.041051824,0.015417562,0.012678509,0.022237252,-0.0020024516,0.0012121799,-0.007427146,0.070023194,-0.012119667,-0.031287584,0.061804473,0.04210544,0.046743803,-0.040863983,0.025490856,0.13531259,0.06989081,-0.026020283,0.05972752,0.082696445,0.007198617,-0.01792549,0.09664117,-0.012818772,0.027845213,0.06034249,0.090192914,0.038716733,0.033750433,0.025463743,-0.004124967,0.013045565,0.010388732,-0.06833854,0.034982506,-0.015620858,-0.0722488,-0.104043804,-0.0191596,-0.068728104,-0.072397895,-0.106434554,-0.047275174,-0.0052171424,-0.08170762,-0.018346056,-0.008307151,0.010796955,0.011011541,-0.076538496,-0.063072145,0.03218548,-0.0372909,-0.028984323,0.042192213,0.08807644,0.0130891,-0.004748504,0.0631903,0.042195275,0.020052811,0.041875623,0.024848295,0.0072245267,-0.034978043,-0.043937802,0.0069476618,-0.020535532,-0.1936519,-0.046908833,-0.001914672,0.018210156,-0.010538002,0.05667799,0.032198817,0.07028967,0.10062653,-0.0021294393,0.024054484,0.07628275,-0.019504666,-0.14678639,-0.0056914096,0.07717374,0.002757877,-0.0037473096,0.05322894,0.020901281,0.04999027,0.084736496,0.09614375,-0.0696911,0.06969964,0.101722345,-0.08233428,-0.09900428,-0.09725588,0.008181941,0.015674138,-0.0011301563,0.008653906,-0.0131129585,-0.025060007,0.022871995,0.0067370967,-0.0003046112,0.064345405,-0.018442797,-0.08235749,-0.09351599,-0.2080305,-0.036036965,0.05903327,0.06486446,-0.0009526157,-0.011029562,0.022308147,0.124088615,0.14141296,0.14075552,0.19145197,0.038758084,-0.04547942,-0.1676856,-0.071427934,-0.06878177,-0.053075302,-0.19005129,-0.12284315,-0.08521945,-0.12152941,-0.0032386922,-0.014710233,-0.039997008,-0.0076405704,-0.06836902,-0.04507184,-0.014417047,-0.06658369,-0.0135826655,0.059850287,0.03445781,0.025638524,-0.0137949595,-0.07661557,-0.043122847,-0.014576098,0.084915176,0.15002555,0.07407276,0.12665142,-0.0038806715,-0.037567317,-0.13334794,-0.15327772,-0.18326424,0.04777792,-0.031166565,0.08652852,0.09709164,-0.019047026,-0.08550687,-0.013845271,-0.06765022,0.026443535,0.08299944,0.108590566,0.04069787,0.064909086,0.0024940863,-0.0019994765,-0.007876205,-0.009092563,-0.16149837,-0.0015492378,0.09414779,0.15719277,0.089516036,0.049139686,-0.03776921,-0.025540855,-0.163119,-0.12570296,0.08393465,0.13588902,0.023788262,-0.018573722,-0.027333269,0.08046748,-0.01666722,0.04573979,0.0009896653,0.026150571,0.2511516,0.09274084,0.0058819274,0.010708886,-0.0012698338,0.044528026,0.020630985,-0.023834776,-0.10660408,0.009277546,0.07366231,0.04690868,-0.0058804704,-0.0033592286,0.063147336,0.10289361,0.019656464,0.08197018,0.1302652,0.08769549,0.04916239,0.009052802,0.02087369,0.15117066,0.061387736,0.04405244,0.04693463,0.058189604,-0.0030328878,-0.010306556,-0.05212856,-0.03748189,0.04058752,0.003173293,0.015120294,-0.00056183396,-0.057157967,-0.05857016,-0.05187252,0.08771837,0.0984043,0.1873832,0.27450475,0.16828224,0.13313018,0.19952986,0.20708406,0.14152041,0.16030927,0.14435439,0.10823636,0.13566695,-0.008474186,-0.021254016,-0.02603848,0.104446575,0.016497208,-0.06935797,-0.12006745,0.01669611,0.036456924,0.013766317,0.003503759,0.069647625,-0.004531383,-0.078988835,-0.20909944,-0.08456947,0.060870282,0.11519705,0.18717419,0.2657502,0.24802515,0.2829332,0.25501046,0.22721693,0.14652926,0.052038454,0.051513202,0.12509878,0.013742864,0.0035409026,0.031687517,0.11376261,0.00077952124,-0.11021324,-0.07847023,-0.0053797755,-7.3894866e-05,0.026474498,0.0033453405,0.09415868,-0.013839604,-0.062758885,-0.22652358,-0.17174704,-0.12090871,-0.20841376,-0.16611469,-0.003325044,0.18194301,0.2747777,0.23007502,0.12438973,-0.049300164,-0.09553216,0.021563582,0.083128855,0.013839957,-0.035676226,-0.04198685,0.058919013,-0.008911262,0.053622115,-0.10044754,-0.05243239,0.0010179251,0.024984516,0.01755672,0.09406903,0.01613161,-0.18782961,-0.25894812,-0.36999395,-0.29107016,-0.5076216,-0.54278743,-0.5247768,-0.35497835,-0.109097645,0.02362347,-0.10934283,-0.10155931,-0.09047618,0.015884798,0.095483504,0.008411358,0.023614027,0.055292487,0.047329605,0.045811076,-0.0027289076,0.045089085,0.074694835,0.031286895,0.03589958,0.048603218,0.033884637,-0.027397012,-0.21439156,-0.34193712,-0.3819486,-0.42850947,-0.54798067,-0.6974834,-0.64454424,-0.36167085,-0.3093926,-0.19143409,-0.20410411,-0.14265104,-0.05638569,-0.06733831,0.030951656,0.04062847,0.033083927,0.10611256,-0.0005646685,-0.020538311,-0.11334597,0.041131508,0.09151014,0.002876397,-0.004626196,0.00590254,0.03401421,-0.025212001,-0.14928278,-0.22787897,-0.39413995,-0.3082353,-0.39746508,-0.32960746,-0.3057631,-0.2815102,-0.30454004,-0.22849932,-0.04298994,-0.02084361,-0.02066548,0.06075826,0.05775733,0.00807024,-0.044722717,0.031466626,-0.13196558,-0.1372893,-0.14194062,0.039412443,0.015462404,0.019598065,0.04201496,0.05236567,0.057091992,0.024405288,-0.007621967,-0.08068089,-0.11411018,-0.074971184,-0.06546665,-0.020298561,-0.07194334,0.0040627476,-0.23787728,-0.101055086,0.10236186,-0.03185449,-0.014729991,0.091788575,0.08070503,0.03868041,0.0048040417,0.04826057,-0.13272867,-0.1941438,-0.040304597,0.0070221922,0.00031125054,-0.0033289874,0.007525979,0.038402475,0.004848326,0.039563626,0.13165388,0.023288837,0.10299503,0.13903287,0.082772784,-0.08108031,0.03983556,0.062296048,0.043438453,0.011476617,-0.07241345,-0.059528667,-0.043194167,0.005577418,0.046408135,0.10015945,0.07035577,-0.06840584,-0.21147996,-0.19767413,-0.05570989,-0.025347337,-0.003428523,0.034441598,0.007944355,0.023715623,-0.010190162,0.022112945,0.21520129,0.11697003,0.11287634,0.18978412,0.15507905,0.02737327,0.08224495,0.13438004,0.05446578,-0.010653756,0.018234275,0.015473835,-0.09573403,-0.09792496,-0.02402574,0.07322378,-0.024725871,-0.15600172,-0.1659883,-0.09952932,0.035166077,0.01777454,0.017625954,0.0017144661,0.05234194,0.047442134,0.05225,0.059497535,0.1759054,0.09714922,0.05699779,0.13910125,0.09977941,0.10986323,0.10605306,0.18291278,0.006583971,0.04689281,0.025164763,-0.07014656,-0.13460326,-0.08859306,-0.073615275,-0.07316004,-0.12624814,-0.18757558,-0.1474413,-0.030038193,-0.0038874135,0.009062773,0.030174084,0.03505819,0.015945908,0.008758446,0.051501557,0.12466268,0.20021874,0.19090192,0.12426689,0.10574717,-0.0712468,-0.030105641,0.13534805,0.09952575,-0.05099923,0.09913018,0.00920943,-0.11704044,-0.16153808,-0.124570064,-0.005946695,-0.10989148,-0.022578698,-0.03610186,-0.023079948,-0.015994046,-0.051135745,0.051589042,0.03496899,0.03432844,0.03602881,0.027401306,0.062346354,0.020800568,0.082721464,0.15277727,0.096986964,0.03690818,-0.018603982,0.10215604,-0.027104758,-0.053341042,-0.097034775,-0.039092995,-0.0018944758,-0.12913658,-0.20303944,-0.17191656,-0.0896778,-0.04739091,0.05185288,0.06605419,0.06427495,-0.0033789366,-0.02151838,-0.005336425,0.052428033,0.011359029,0.048433762,0.008074587,0.06233725,0.04235294,0.030563008,0.10138267,0.14052385,-0.011158343,-0.045783643,0.11256697,0.14161,0.06694699,-0.01613373,0.040361404,0.11066991,0.01862118,0.050759263,0.02218283,0.021396788,-0.022190172,-0.015128582,0.048223406,0.005528557,0.014440685,0.036042497,0.021247376,0.027973622,0.05310699,0.03824953,0.021800496,0.012509667,0.055021454,0.04201336,0.04565652,0.0052837776,-0.0020740551,0.043289725,0.023799265,-0.0041545583,0.049971804,0.047065254,0.019757858,0.06784023,0.013152354,-0.030947005,-0.009880669,0.0048458003,0.012738808,0.00053179864,0.028822355,0.020715948,0.021114685,0.042624284,-0.00041323778,0.020661116,0.048743505
0.026386766,0.008023884,-0.01698655,0.0034829853,0.0040979423,0.010292735,0.015334408,0.018095454,0.007072611,0.0014418782,-0.02520766,0.0068252366,-0.005420894,-0.021949882,0.025216954,0.010246839,0.00925616,-0.02802914,-0.002924961,0.037310943,0.022980666,0.021239353,-0.02151631,0.02845792,0.015657859,0.009119891,0.036526907,0.022601688,0.04178757,0.041501667,0.011820324,0.016235685,0.0020739404,-0.0017158288,0.029169248,0.0023234745,0.0227737,-0.004757758,0.015296123,-0.03830385,-0.0010964763,0.021853527,-0.023224879,-0.008866181,0.0865527,0.07796805,0.01611116,0.0047800993,-0.017448248,0.03557829,0.003491066,0.037243165,0.018643444,0.0019592054,0.03342289,-0.0139386915,-0.024759585,-0.0017639931,-0.0022807335,-0.0059480052,0.022532396,0.04009759,0.030145125,0.0018462457,0.02624696,-0.031761996,-0.021810483,0.014154353,-0.024163695,-0.07013499,-0.046175282,-0.049289986,0.020834472,-0.019950563,0.038325988,-0.0012311882,0.06276664,0.013045232,-0.0019755478,0.035465695,0.010030856,0.023308491,-0.0032127146,0.034404308,-0.021721365,-0.0075800237,0.009666286,0.061859675,0.016505886,0.019449485,0.046835717,0.027567504,0.0389033,0.04681396,0.0033512437,0.03941432,0.07583432,-0.010070844,0.083961345,0.2103841,0.17212914,0.014693402,-0.048338275,-0.02351198,0.055421095,-0.027759256,-0.01695701,0.005936639,0.053151067,0.00042164515,0.023731546,-0.023620969,0.03262514,0.02410469,-0.02553769,0.013733711,0.018834434,0.01925886,-0.021886945,-0.052569624,-0.11184744,-0.02744574,0.0061003813,0.17065991,0.1832024,0.14630659,0.11055286,0.13746539,-0.026805736,-0.17357914,-0.15680766,-0.13400142,-0.027671896,0.029229099,-0.033188537,-0.009310838,0.058868278,-0.017205473,0.00016234446,-0.023184137,0.036074422,0.018432861,0.033924334,0.016178392,-0.043745894,0.022553207,-0.04825592,-0.09775331,-0.061398763,0.028574273,-0.1472646,-0.08975824,-0.08588323,0.08945124,-0.04312548,-0.04618639,0.04787194,-0.092775755,-0.23503445,-0.34327254,-0.3292516,-0.15145311,-0.072988436,-0.08698246,-0.027781352,-0.10292522,0.036467403,0.031513352,0.040829748,-0.0019240008,0.037670437,-0.024155075,0.073861,-0.044394765,-0.17115203,-0.16609754,-0.10585903,-0.09093505,-0.15391205,0.00776486,-0.07288643,-0.066316344,-0.09064946,-0.2320103,-0.15627706,-0.30496478,-0.20871274,-0.2970287,-0.3048329,-0.029343778,0.04166127,0.0055058133,-0.04107091,-0.024750674,0.012778306,0.042824198,-0.0013301661,0.023875393,-0.01568552,0.0026623597,-0.016669277,-0.08905533,-0.09805109,0.019506438,0.09133943,-0.07982623,0.098344915,-0.0070084957,-0.0513083,-0.08661653,-0.09676696,-0.21960264,-0.07757744,-0.15854356,-0.16530181,-0.16209224,-0.15747261,-0.07045873,0.11770634,0.06901123,-0.039864887,-0.09542062,0.031096503,0.029441211,-0.0075784875,-0.006265419,0.012256231,0.032401446,0.008729171,-0.052143063,-0.14089057,-0.04185029,-0.055766135,-0.18220784,0.061024874,0.0050421604,-0.02986437,-0.0025190292,0.024595644,0.053370286,0.096415155,0.075435005,0.12153345,0.109214075,-0.03822648,-0.004071175,0.07371198,0.0998061,0.14772032,0.14276943,0.020708995,-0.024611684,0.03452882,0.05109634,0.03480652,0.103479765,0.16621967,0.0056540915,0.02546782,0.002289362,-0.104943044,0.0012896676,0.09471949,0.20245124,0.2735077,0.26513854,0.23481587,0.19886273,0.22252797,0.23596004,0.31938168,0.19273265,0.07610128,0.10681311,0.17491084,0.08519027,0.2270988,0.19423828,-0.043950807,0.028193885,0.0059497654,0.016619887,0.028101394,0.15340208,0.14777389,0.09640402,0.07615334,-0.037208095,0.082224,0.19343321,0.13528009,0.22728868,0.19249028,0.31685248,0.22636105,0.24335167,0.3075838,0.124618545,0.14133334,0.07096651,0.03472005,-0.025754351,0.1050634,0.07015127,0.05404789,0.12931395,-0.0035947047,-0.016119776,-0.0032738512,0.00682129,0.13243143,0.20418113,0.056730837,-0.023726285,-0.001197971,0.00618326,-0.059168402,-0.04945154,0.016152214,0.2123402,0.104203336,0.17419225,0.16337903,0.113118656,0.03806176,0.027157813,-0.004641771,0.03463083,-0.034752022,-0.17609666,-0.02666804,-0.019840911,-0.0019332322,0.058772333,0.05281409,0.020217346,-0.010909267,0.019058278,0.029335964,0.07359275,0.048516236,-0.041487537,-0.04019081,0.12513468,-0.008599274,-0.0455932,0.033616118,-0.06177701,-0.10977723,-0.09111148,0.059039157,0.019216359,-0.042089254,-0.07420694,-0.124497086,-0.12047158,-0.13363262,-0.17633687,-0.097225815,-0.12538812,-0.13371459,-0.0052640047,0.009309784,0.01235032,0.03187047,0.039981335,0.008448869,-0.013008713,0.015137033,0.046898782,0.06964094,0.0305159,0.012740927,-0.08924956,-0.10465317,-0.074569225,-0.0088432925,-0.055125058,-0.1600072,-0.21058126,0.01837831,0.005564481,-0.16926047,-0.15273604,-0.05326035,0.013946569,0.003929679,-0.01192638,-0.053160336,-0.005000357,-0.027315918,-0.011431662,0.03663699,-0.017410522,0.005355684,0.04366957,0.06247393,0.05579248,-0.01433328,-0.10559192,-0.1466269,-0.17645033,-0.16392535,-0.06351233,0.032668643,-0.22558418,-0.18089044,-0.11141654,-0.08100757,0.022775369,-0.053560305,-0.010262605,-0.05176154,0.016242621,0.094530255,0.08446526,0.10425037,0.016473772,0.021880155,-0.027959885,0.0069342535,-0.005409174,0.02857979,0.113489084,0.11876123,0.17026362,0.074746646,-0.05519155,-0.19393866,-0.24808264,-0.2842533,-0.20726895,-0.10437082,-0.16463667,-0.08645326,-0.046125114,-0.07027743,0.044787083,0.0635187,0.1120133,-0.0026498472,0.014032363,0.027471853,0.04068666,0.09743192,0.0326676,-0.02123166,-0.0019202309,0.014863243,-0.024241807,0.04386982,0.086505145,0.13585734,0.09720374,0.004314783,0.07135042,-0.016873246,-0.18448089,-0.21755122,-0.31214258,-0.21158141,-0.28023612,-0.16754827,-0.12689759,-0.110322975,0.030683061,0.0021211705,0.12347746,0.045199428,0.06930858,0.035254493,-0.07164827,-0.102262706,-0.10936268,-0.010354055,-0.013769959,0.025519015,-0.00013307414,0.042074982,0.046585355,-0.033708498,0.02091369,0.032145634,0.07037485,0.0678628,-0.08211541,-0.12756832,-0.15482777,-0.13986214,-0.19382387,-0.05504244,-0.07698005,-0.08196059,0.139032,-0.015920114,-0.11437559,-0.12078847,0.0046339408,0.08629478,-0.04371703,-0.060238753,-0.026686316,0.028953979,0.0475919,-0.018210834,-0.0027067037,0.03043707,-0.07674521,-0.15365049,-0.08308032,-0.034343522,0.07569954,0.14635092,-0.022715794,0.055185206,0.057733323,0.0046334593,-0.052451126,0.040436372,-0.08851554,-0.013004723,0.2098699,-0.037091758,-0.26672497,-0.12699258,0.026453279,0.010740346,-0.21392347,-0.11447734,-0.0035657294,0.030379457,-0.001346129,0.009071905,0.08667507,0.053056017,-0.049909223,0.07200087,0.05473935,-0.14559208,-0.10006486,0.013018665,-0.044627633,-0.107572906,-0.11296071,0.06296833,0.03726658,0.046856616,-0.036101177,-0.053771187,0.07556285,-0.056119043,-0.09183039,-0.14278002,-0.16060787,-0.17125332,-0.10937216,-0.07931022,0.030036999,-0.024990039,-0.007325952,0.037640475,0.0075146626,0.037816264,0.015832653,0.074304745,0.024331758,-0.061037287,-0.040142998,0.10123283,0.027664734,-0.06771101,-0.15262718,-0.08665569,-0.02224447,0.008017326,-0.09040743,-0.03598243,0.031208375,-0.0978889,-0.13004367,-0.17808194,-0.18845998,-0.05304123,-0.018283086,-0.022773221,0.006989048,0.026349299,-0.027314745,-0.027426086,0.002491918,-0.020676788,-0.07099398,-0.03830361,-0.027946245,-0.1631922,-0.0071631363,0.049711674,0.1440607,0.02800287,-0.08639663,-0.07390807,-0.023251824,-0.08681435,-0.10806514,0.026475046,0.006004946,-0.13647804,-0.18377712,-0.1989092,-0.16999385,-0.0662686,-0.037584092,-0.05234635,0.038149077,-0.013297086,-0.021411086,0.041405257,-0.01731827,0.001297596,-0.021558627,-0.016838605,-0.08650754,-0.072637364,-0.007558319,0.10723493,0.15760365,-0.050994635,-0.17417811,-0.030129643,0.0112485215,0.06509644,-0.023890607,0.00028355187,-0.03281761,-0.13623653,-0.19040519,-0.1910213,-0.116003715,-0.06358411,-0.038389456,-0.024674147,-0.034801535,-0.02709401,-0.024104645,-0.019971522,0.02844805,-0.0024237735,0.025475772,0.025140662,0.035600457,0.049437206,0.103837684,0.02822785,-0.107899494,-0.07469384,0.01611354,-0.044192463,-0.005404765,0.029403381,-0.080006674,-0.099394284,-0.14378472,-0.10557801,-0.16246976,-0.16821752,-0.05543057,-0.0599441,-0.023096742,0.006989601,-0.030907035,-0.003740161,-0.00049801474,0.028595438,0.04110883,0.043629,0.03859811,0.10306021,0.19256254,0.088492416,0.18225549,0.13351382,-0.071135595,-0.05285213,-0.004275915,0.030399552,0.017111475,-0.028124651,-0.022527872,0.037727706,0.032332536,-0.09331261,-0.048756085,-0.041192926,-0.06508132,0.02141427,0.023241915,-0.019653501,0.020867243,-0.0002932616,-0.027625557,0.034839503,0.007490164,0.02273182,0.04572212,0.061226107,-0.006736366,0.016950829,0.26998857,0.079763554,-0.15811701,-0.14353715,-0.04948698,0.02228612,0.04643586,0.16471691,0.10289285,0.3111127,0.2442412,0.096061945,0.0940168,-0.03560265,0.007899731,0.002905142,0.016461294,0.0031588478,0.030195748,0.015621821,-0.026517583,-0.02795897,0.03566489,0.025613355,0.0092297215,0.009519307,-0.12299035,-0.10102287,0.021168172,-0.04349007,-0.035034228,0.036491375,0.092677824,0.20515762,0.20254785,0.22039346,0.070084825,0.208102,0.24513479,0.152439,0.15328431,0.08090425,0.118127905,0.03239657,0.027555238,0.009052832,0.028014729,-0.021899888,-0.026122147,-0.003399286,-0.010084325,-0.015127353,0.020604512,-0.017849045,-0.0174499,0.007505514,0.07942362,0.0855611,0.038844213,0.07621724,0.015199441,-0.007286306,0.036494996,0.04444793,0.020341545,0.04911427,0.048890695,0.06862046,0.04130742,0.041830942,0.02202752,0.022333892,0.036636207,-0.0005999974,0.042228952,0.020108553,0.0012007811
0.02564871,0.040098563,0.04977891,0.004937988,-0.012878445,0.021239005,0.04976061,0.0049469285,0.009104302,0.037900705,0.04430709,-0.0122606,0.034597278,0.0011180644,0.019402485,0.029409666,-0.0075905006,0.03122076,0.028206363,0.055368967,0.054431573,-0.00722054,0.02374934,-0.012987872,0.045086317,0.024935845,0.009203745,0.050286643,0.0423053,-0.014929151,0.018280322,0.01624346,0.043455854,0.038307067,0.010481182,0.008032402,0.026929947,-0.007716405,0.036109492,0.00087742007,-0.02464182,-0.015722105,0.0019450714,-0.0057082577,0.03574648,0.008871082,0.019491307,0.04224532,0.008592248,0.014493753,0.036030225,-0.0057821223,0.0018571366,-0.008315274,-0.00077235483,0.035058208,0.022061603,-0.014554231,0.053724803,0.010249129,0.027297048,0.033710975,-0.014227737,-0.008890503,0.029130645,0.008826394,-0.010728076,0.036285784,-0.04247127,-0.053311873,-0.032005444,0.026222367,-0.04194738,3.2232085e-05,-0.030092848,-0.05246719,-0.0006358262,0.028929053,0.060098115,-0.01315885,0.0062779565,0.028410144,-0.008599016,0.044197023,0.0047845836,0.029619802,0.021668365,-0.00958086,0.021996094,0.01972042,0.020008748,-0.027391437,-0.018168306,-0.05344036,0.005891038,0.002433733,-0.16053897,-0.28251535,-0.19786592,-0.15950935,-0.14910364,-0.06910362,-0.11115448,0.0040048906,-0.031843293,-0.0454839,-0.06013262,0.06959734,0.07917685,0.015181317,-0.008630785,0.015422567,-0.011687928,0.036316197,0.05142906,0.044938177,0.044541765,0.02761909,0.04692854,0.05597169,-0.014263374,-0.0072492226,-0.12735857,-0.18644105,-0.2012556,-0.19969961,-0.21572408,-0.15030943,-0.09909461,0.08917079,-0.13377807,-0.117994174,-0.09638348,-0.07895983,-0.058911048,0.048785318,0.01060866,0.0068420954,-0.011669549,0.042329226,0.043785423,0.036909044,0.017856887,0.043543328,0.06804898,0.07782657,0.019786665,0.057766337,0.14204758,0.16466954,0.08803027,-0.083533294,0.09062041,-0.015647987,-0.19644725,-0.14768001,-0.13795877,-0.05146795,-0.11866562,-0.2639825,-0.16534665,-0.09217089,0.01145281,0.16468772,0.13818808,0.043786276,0.017617024,-0.011336881,-0.010814679,0.033131983,-0.0019210344,0.032585975,0.02577035,0.12846728,0.122359365,0.105072744,0.25808722,0.23395236,-0.020626606,-0.038306817,0.0883966,-0.014954557,-0.0250327,-0.028000282,-0.07839729,0.06464287,0.009779722,-0.08010099,-0.046218943,0.10351391,0.18213463,0.27120835,0.0039163367,-0.06393537,-0.050443407,0.02491333,0.015377942,9.8056946e-05,0.05952801,0.0696349,0.16583918,0.11147453,0.06325861,0.060472343,0.08000181,0.12237587,0.014822114,-0.019925222,-0.021954745,-0.069647245,-0.023974344,0.0036685786,-0.0903347,-0.09350014,-0.01033324,-0.04456924,-0.13501073,0.039923612,0.14476828,0.14127222,0.011869437,-0.09617477,-0.050023306,0.03146014,0.02827265,0.009568434,0.02860938,0.028419433,0.15734012,0.18018304,0.06271235,0.04851307,0.1337832,0.12316781,0.021417106,-0.04099408,-0.06149203,-0.018204963,-0.02500883,-0.1349958,-0.17137124,-0.18308116,-0.07718042,-0.019712862,-0.066851236,0.022541525,-0.0392967,-0.10656674,-0.0885226,0.0456121,0.01377197,-0.0036481167,-0.006097612,0.036634773,0.03943332,-0.018678779,0.015197185,0.05488261,-0.09962714,0.07815087,0.12685958,0.0768628,-0.04140033,-0.14686489,-0.09540523,-0.023875268,0.010248888,-0.042008772,-0.10992856,-0.054852407,0.087993115,0.028443469,0.03496107,-0.030434227,-0.12445247,-0.070864946,-0.025264667,-0.100332074,-0.01984998,0.016966594,0.00827482,0.051235147,0.0056669125,-0.012641484,-0.035245143,0.093794815,0.0037435505,0.07323995,-0.0009313968,-0.006032591,-0.09496089,-0.09038838,-0.06704035,-0.105858244,-0.16207469,-0.02964299,0.02377874,0.033982474,0.10829035,0.122753054,-0.013977776,-0.13186601,-0.059891615,-0.069609724,-0.04654173,-0.10238475,-0.01720502,-0.011554263,0.028719487,0.00023195721,0.045563944,0.020910006,0.01487976,0.054424312,-0.06683609,-0.020240264,0.020305354,0.110134766,0.06186325,0.067805305,0.02888199,-0.21409413,-0.21101575,-0.013960871,0.042909984,0.09884188,0.06586496,0.13653517,-0.03870353,-0.06756945,-0.033115223,-0.11258941,-0.08268281,-0.054336034,-0.042119354,0.04188072,0.02675372,2.4321489e-05,0.026610894,0.021553483,0.08135792,0.044481948,-0.10397394,-0.09480487,-0.031842254,-0.031500496,-0.0618512,-0.024488386,-0.02986171,-0.2826633,-0.2648331,-0.022369413,0.12378839,0.064048484,0.123082876,0.012089729,-0.12144775,-0.06294564,-1.4712117e-05,-0.14671838,0.021947144,-0.04940978,-0.07765516,-0.008895662,0.007085667,0.03985496,0.021515388,0.058015194,0.07615611,-0.00556845,-0.0856511,0.009336687,-0.04055666,0.10164964,0.0346851,0.025619315,-0.17566626,-0.2613378,-0.21021803,0.04022846,-0.0063107032,0.09581447,0.063864954,-0.0134276105,-0.10716626,0.03425442,0.062405683,0.087565385,0.009461101,-0.014929029,-0.04072058,0.012423686,-0.008478775,0.055391233,0.034988176,0.024318589,-0.008819242,0.0752124,-0.061130397,0.096694455,0.058263473,0.04578558,0.058091022,0.030903665,-0.17465915,-0.060313106,0.11827555,0.116877064,0.056378894,0.112853885,0.17168634,0.1748943,-0.12803663,0.0055620805,0.05654656,0.15292628,-0.029967401,0.014314549,0.048053995,0.00090910186,0.045564815,-0.0062588123,0.020528361,0.1159498,0.07326005,-0.048118036,-0.038631126,0.051685017,0.072152324,-0.050044175,-0.08454401,-0.17622094,-0.34715748,-0.06580285,0.23695567,0.24162637,0.09299689,0.21012641,0.14150932,0.04976113,-0.04474587,-0.09899082,-0.03071939,-0.060678653,-0.083107084,0.030010518,0.047324,-0.0046222224,0.039973326,0.0018305334,0.05002361,0.034260064,0.013567948,-0.05276217,0.058058225,0.07218332,-0.051368497,-0.109741844,-0.1395569,-0.36525524,-0.3194581,0.016214166,0.21476884,0.08412622,0.10640405,0.21896915,0.08487833,-0.07434169,-0.15221073,-0.15670902,-0.11865433,-0.04824505,-0.046206415,0.05339289,0.028688194,-0.009470527,0.026690684,-0.014634946,0.0005704465,-0.0037810837,-0.0012578333,-0.022115568,-0.00995345,-0.11483009,-0.11638494,-0.17719188,-0.21387853,-0.18608963,-0.016469767,0.21083573,0.09733918,0.05173343,0.059471298,0.101708,0.10227576,-0.18544376,-0.105665445,-0.18212542,-0.23114708,0.004812132,0.07117632,0.10016749,0.014404215,0.04256092,-0.0051448676,0.03848061,-0.013675676,-0.012491033,-0.0015186771,-0.16118303,-0.1546001,-0.1420819,-0.15309376,-0.33826324,-0.3345031,-0.048007365,0.25916636,0.2796382,0.14649148,0.03013286,0.07899368,0.12482425,0.13034922,-0.1004287,-0.082517825,-0.20640263,-0.16773093,-0.0399119,0.08150485,0.027526634,0.018720767,0.052568503,0.037327547,0.036630798,0.03440149,0.017428663,-0.023062464,-0.12748623,-0.22017995,-0.269932,-0.22025661,-0.25409874,-0.10999767,0.18567678,0.21072139,0.27397227,0.102931626,0.025223918,0.0370906,0.07829195,-0.007544409,0.009595881,0.00088511995,-0.083850734,-0.08894579,-0.023557726,0.051357433,-0.010246737,-0.021107526,0.025418002,-0.0046617123,0.053980686,0.030656155,-0.019236008,-0.09835164,-0.14445032,-0.37165332,-0.34841126,-0.23834334,-0.10773586,0.09916794,0.22072904,0.18968734,-0.008142269,-0.0315264,-0.017083857,0.08589938,-0.0495044,-0.1233458,0.006843906,0.07576054,-0.0935721,-0.14835458,-0.099649034,-0.01454285,-0.009570793,-0.0023979412,-0.012408109,-0.004127576,0.0027221588,0.0013310454,-0.04161843,-0.103921816,-0.19995353,-0.3681597,-0.45793703,-0.16967852,-0.076892205,0.066259325,0.05942165,0.036352087,-0.08583327,-0.078489065,-0.084090635,-0.05862993,0.017221348,-0.1818923,-0.056031987,-0.14433785,-0.030024955,-0.10529672,-0.049838323,0.017598892,-0.016359584,0.009669898,0.053049825,0.03475597,-0.0030042427,0.027526943,-0.041296527,-0.09221942,-0.23432462,-0.29488033,-0.20332445,-0.09363284,0.017485892,-0.0263321,-0.08140571,0.05742871,0.0551123,-0.041862357,-0.015331304,-0.033880547,-0.10257519,-0.10069724,-0.027236644,-0.13608375,0.007176488,-0.002088632,-0.058031615,0.023696639,0.01338295,-0.019204762,0.011676545,0.029157776,-0.0025964193,-0.018713567,-0.04245883,-0.07706443,-0.11625971,-0.050763447,-0.10993843,-0.19713332,0.02653916,0.105476156,-0.006028781,0.11379482,0.1122637,-0.031673376,0.008408659,0.003456651,0.013577678,0.043487146,0.053136762,0.00026725256,0.1879146,0.10227718,0.036527816,-0.007797311,0.04718434,0.03651496,-0.013921431,0.004529547,-0.0037038454,-0.0054655345,-0.027118733,-0.05175763,-0.02415365,-0.05034186,-0.22482704,-0.15842462,-0.13948072,-0.039282877,0.035442695,0.136062,0.22792658,-0.04324598,0.06431057,0.10474905,0.07305168,0.15050454,0.18650821,0.10284563,0.13571075,0.051723056,0.037221044,0.008232371,0.035588283,0.008033547,0.051599383,0.0056664883,0.04507696,0.04197197,0.04982244,0.013545094,-0.110078484,-0.05598446,-0.15058409,-0.10242292,-0.06698536,-0.05658662,-0.008625725,-0.018864714,-0.059156887,-0.0028163707,0.07885853,0.10598225,0.1366141,0.1447416,-0.07888861,-0.09471567,-0.050797354,-0.0070932573,-0.020526782,-0.02377092,0.007836454,0.006483693,0.01470112,0.009164924,0.021820722,0.033619244,-0.011415177,0.004737885,-0.06770049,-0.011535237,0.054166432,0.058661688,0.02766608,-0.11069379,-0.18289424,-0.0048424634,0.11694587,0.026115349,-0.055581234,-0.01540112,0.03488134,0.019110546,0.049546126,0.0004058772,0.02845879,0.05606109,0.037029527,0.026271839,0.022449076,0.03519498,0.037645455,0.012101724,0.017151717,0.052888878,0.0067227273,0.044265218,0.050206173,-0.0040043015,0.0030605865,0.003823431,0.033129577,0.04653844,0.036748845,0.031000653,0.020395469,-0.0042451276,0.012298871,-0.018895816,0.07011273,0.054599732,0.060746312,0.04535767,0.053111088,0.052701715,0.02880736,-0.008453458,-0.01069224,0.04751721,0.018872855
-0.0076655746,-0.012797937,-0.03354473,-0.032911483,-0.05124883,-0.031155998,-0.0032830755,-0.0018910485,-0.0035562245,0.0006741104,-0.0415761,-0.040228907,-0.055492792,-0.038217496,-0.055820916,0.013883446,-0.0006553135,-0.043985758,0.008132178,-0.001090522,-0.01567089,-0.035113126,-0.03536097,-0.02145738,-0.028644895,-0.045727026,0.0061953496,-0.025711464,-0.027302483,-0.0072833262,0.0077933245,-0.01624099,-0.004651309,-0.04236007,-0.0069213673,-0.030051729,-0.028913265,0.003397932,-0.0032037334,-0.05408775,0.011354198,-0.030109541,-0.056696493,-0.0036607343,-0.04633708,0.006183503,-0.0130869495,-0.01314604,-0.044101354,-0.009326778,0.0022308878,-0.053698923,-0.05088887,-0.0511151,-0.004187634,0.010623741,-0.021568878,-0.022288145,-0.02079758,-0.041435923,-0.0025477083,-0.039699845,-0.06260146,0.0027836745,-0.05424486,-0.04242062,-0.09676491,-0.08578157,-0.11654164,-0.08729317,0.003486741,0.043245237,-0.017975189,-0.03714793,-0.049636368,-0.03475695,-0.021846717,-0.0351139,0.038292494,-0.019114567,-0.030057969,-0.045974668,-0.045039017,-0.014588141,-0.04537734,8.032378e-05,-0.024145404,-0.007945163,-0.021026103,-0.023326071,-0.06112168,-0.1404569,-0.076071166,-0.14805484,-0.12012154,-0.18879741,-0.21809138,0.058275912,0.051898018,-0.08423458,0.06481835,0.12848507,0.07620091,0.06751704,0.09537586,0.0702227,-0.0065733483,-0.037784863,-0.05217215,-0.023863243,-0.018114366,-0.05395635,-0.039775144,-0.042295534,-0.009714071,-0.043619458,-0.047731977,-0.07535901,-0.06506706,-0.012790099,0.059309676,-0.043909807,-0.23653129,-0.17213091,-0.11191408,-0.02778816,-0.16177256,-0.09957469,0.05932104,0.116520695,0.118484534,0.1251296,0.091824695,0.0059565874,0.015412434,0.043560304,-0.002296912,-0.051583428,-0.041715946,0.012203447,-0.04227065,-0.027447538,-0.0227897,-0.037073757,-0.060382765,0.004628075,0.116379455,0.055008143,0.15618132,-0.0048859934,-0.15436502,-0.19474779,-0.21268374,-0.19409968,-0.18656546,-0.29648516,-0.17199126,-0.058680445,0.13408639,0.08271334,0.09520137,0.04505358,0.01742968,0.08010017,0.00958846,-0.03763932,-0.01355191,-0.03614169,-0.01622597,0.010143307,-0.013792879,-0.0151701085,-0.14331515,0.06849818,0.17149846,0.122651175,0.14466962,-0.09162307,-0.1620455,-0.22371118,-0.27684858,-0.23227845,-0.19606529,-0.10233067,-0.064774826,-0.1053499,-0.018723715,0.004101781,0.11020718,0.13924567,0.24934107,0.123658635,0.029794244,-0.008551488,-0.0013447877,-0.041451138,-0.050337803,0.0033318838,0.0034461934,-0.05906835,-0.12773241,0.15499598,0.18778072,0.26772547,0.084262826,-0.023926055,-0.14195254,-0.09212184,-0.09143621,-0.10504091,-0.01968003,0.04602966,0.07701749,-0.029815067,-0.024706114,-0.014581006,-0.030796949,-0.03396088,0.13174029,0.19825247,0.025639482,-0.033076387,-0.03188847,-0.011869957,-0.0445127,-0.029997008,-0.009452504,0.04073287,-0.12845981,0.11048162,0.09845998,0.14092486,0.1115951,0.043854337,-0.024697557,0.0043176073,-0.014586261,-0.010158604,0.00042300991,0.011284979,-0.040827624,-0.08047491,-0.05602394,-0.0937452,0.030147975,-0.0065864464,0.103463426,0.081151456,0.0063089947,0.028118266,0.0006628375,-0.017589321,-0.0022152418,0.017035224,0.032878056,0.036094338,-0.10736664,0.06907404,0.10141366,0.107977144,0.13148521,0.14530276,0.13261908,0.09762204,-0.10112745,-0.19776514,-0.22228095,-0.22356936,-0.10370726,-0.121629626,-0.082209125,-0.01585631,0.07907854,0.04947913,0.036627498,0.07376646,0.03913786,0.026179623,0.005688565,-0.0036367332,-0.00028609383,-0.015608737,0.042601947,0.11850083,-0.008841417,0.09411055,0.19268554,0.17142338,0.07617479,0.205874,0.16634846,0.033320706,-0.044743534,-0.14145492,-0.17616457,-0.1648941,-0.13062748,0.016396292,0.083402544,0.08351346,0.05870919,-0.060992982,0.10308847,0.00086721324,-0.11631112,0.044776283,0.002059852,-0.001847649,-0.023944333,-0.024540193,0.06283653,0.02402957,-0.060324993,0.13555558,0.25078487,0.07941866,0.022350432,0.18144235,0.0686167,-0.053071003,-0.20467353,-0.1728836,-0.0464164,-0.030232381,0.034263562,0.20603058,0.18000439,0.092131704,0.03565761,-0.16029614,-0.115749195,-0.08011201,-0.1337399,-0.033785976,0.011980275,-0.006538069,-0.053934257,0.0059853266,0.07349147,-0.013527744,0.15224749,0.31886318,0.28597158,0.1881662,0.16002187,0.15048327,-0.034909084,-0.26546595,-0.2633765,-0.20264097,-0.20958503,-0.060009055,-0.010033234,0.11325526,0.0259433,0.046720825,0.09339677,-0.010898159,-0.1768799,-0.05086247,-0.04809247,-0.102191456,-0.037440185,-0.031388614,-0.04156791,-0.01700308,-0.0037397097,-0.03859787,0.26211494,0.17415522,0.12487606,0.19485512,0.22654897,0.07087352,-0.20877016,-0.3927858,-0.39494908,-0.2836824,-0.18496932,-0.24503021,-0.1993758,-0.02940253,0.022079049,-0.023704529,0.059685275,0.12990874,0.02562441,-0.06246706,-0.001857281,-0.10361929,-0.038482748,-0.022480877,-0.0107339425,-0.047706787,-0.021124162,-0.022183849,0.25791344,0.18158513,0.11514332,0.13581097,0.19202814,0.086627215,-0.19404787,-0.34503624,-0.31319314,-0.15734689,-0.16006693,-0.23483267,-0.2935888,-0.1612924,0.025269698,-0.023654832,-0.0021555803,-0.0024372905,0.0650739,0.08172144,0.13081194,-0.11266363,-0.013436855,-0.027422601,-0.04900587,-0.017668186,0.02075529,0.13636005,0.24464804,0.17400295,0.06308571,0.07755272,0.079073705,0.0132764205,-0.1190096,-0.17565836,-0.117817156,-0.14658596,-0.21877708,-0.26792866,-0.41609138,-0.32994434,-0.063233376,-0.0024289028,-0.05201802,-0.08772829,-0.060587145,0.1213584,0.10233751,0.006234255,-0.01836092,-0.030348489,0.012293773,-0.039123256,0.009500539,0.025534993,0.23047017,0.059687983,0.0129513275,0.047910277,0.033895236,-0.072562665,-0.039675348,-0.07420856,-0.08376273,-0.13576463,-0.15307622,-0.2057462,-0.27614993,-0.21270607,-0.16548932,-0.032966137,-0.008007964,0.08558576,0.020836018,-0.030055229,0.11545053,0.016085904,0.029371038,-0.05357142,0.008807557,0.009480102,0.021268578,-0.038014352,0.060906578,0.042306595,-0.061704352,0.06149477,-0.10166295,-0.042299684,-0.036720376,-0.024313027,-0.028100792,-0.0027495264,-0.026389832,-0.16370808,-0.16506548,-0.14118056,-0.045976568,-0.023853643,0.03806197,0.16361623,0.08596761,-0.038157895,0.083876446,0.061456446,-0.01862501,-0.0026168576,-0.04456686,-0.023190303,-0.010349461,-0.033832014,0.012436013,-0.084169954,0.03146244,0.1619329,0.090734206,0.008108236,0.009897234,-0.00071940303,-0.08875681,-0.05766,-0.08814033,-0.110902995,-0.111161515,-0.11106645,0.0043172757,0.01168153,0.049546793,0.2766709,0.16002958,-0.060601186,-0.007942278,0.07159509,-0.018385671,-0.027200932,-0.0052726194,-0.0032429146,0.0019480578,-0.029695373,0.023493716,-0.04887774,0.04252415,0.18418726,0.17519476,-0.064812995,0.0011388937,-0.04179837,-0.10551168,-0.15325691,-0.11562535,-0.19766422,-0.12589023,-0.06097161,0.09803787,0.15435301,0.18816143,0.27386782,0.040944114,-0.015777308,0.06568949,-0.049879134,-0.030829528,-0.035870712,0.009961543,-0.029046563,-0.040510286,-0.042443376,-0.06876608,-0.17241967,-0.040048648,0.112040214,0.1440124,0.07295814,-0.10988129,-0.07138847,-0.0273402,-0.09677732,-0.14424685,-0.13943385,-0.06845949,-0.008004075,0.11961807,0.12695695,0.11106498,0.1873174,0.11062814,0.09156387,0.12578742,-0.04537893,0.0051356526,-0.05680548,-0.032846,-0.011369008,-0.03682025,-0.04893838,-0.07009904,-0.23050946,-0.20524886,-0.046658803,-0.15941592,-0.13862082,-0.13004178,-0.08922839,-0.13832407,-0.22655469,-0.18582414,-0.049024817,0.021236435,-0.037286185,0.01801155,0.07323466,0.115512356,0.18948376,0.14782907,0.13091931,0.05045844,-0.05925285,0.014104159,-0.04187649,-0.028051907,-0.019347206,0.007854251,-0.08869298,-0.116017595,-0.16563961,-0.2128929,-0.17063105,-0.17559657,-0.07453911,-0.14750466,-0.1823758,-0.21145897,-0.1838212,-0.052736983,0.06863889,0.04837392,0.06251752,0.12656659,0.007991494,0.109092675,0.19064632,0.16824111,0.06681013,0.009132075,-0.028455397,-0.021341106,-0.014642973,0.0027482463,0.0011685706,0.0056027477,-0.009154594,-0.07873283,-0.053536884,-0.13767776,-0.2881262,-0.19979541,-0.17582558,-0.20941176,-0.18539038,-0.13817824,-0.111626625,0.13298345,0.086321905,0.06095773,0.08594743,0.018681817,0.0632333,0.117850475,0.21006143,0.051923558,-0.056687452,-0.021094142,-0.04405449,-0.010655208,-0.044057768,-0.00842174,-0.018357612,-0.03849713,-0.043860752,-0.0567843,-0.020224055,-0.09805363,-0.11692309,-0.05318722,0.010508735,0.016187329,-0.121367306,-0.12514976,-0.06717713,0.0011474178,0.08998379,0.20499136,0.15398325,-0.013393329,0.112616226,0.0993058,0.2136853,0.055768996,-0.038650457,-0.06254498,0.010570078,-0.02356462,-0.024408618,-0.04448889,-0.034164,0.0015376693,0.011183262,-0.05031306,-0.050969936,-0.02616918,0.030546209,0.05716255,0.06556368,-0.0077608763,-0.04729777,-0.08663452,0.016560113,0.14627671,0.3131486,0.28209206,0.18442692,0.11001733,0.06006076,-0.041248772,0.0461628,0.010788075,-0.015559433,-0.010692338,-0.041339558,-0.03530195,-0.052448522,-0.0110788345,-0.015741399,-0.03891215,-0.036450967,-0.0002636322,-0.016723426,-0.054541495,-0.03170301,0.0039086905,0.07432256,0.035138853,0.04319095,0.051620297,-0.017782168,0.13628018,0.33953008,0.18108098,-0.03323048,-0.045581758,0.10371467,-0.045031738,0.083636485,0.049344517,-0.0013845153,-0.030486112,0.009405285,-0.012982266,-0.0399951,0.013242795,-0.047555897,-0.042893853,-0.010692704,-0.03697041,-0.053256612,-0.012158089,-0.00022968548,-0.019617176,0.011191121,-0.045932826,-0.047667693,-0.040522717,-0.047684163,-0.021890342,-0.01727726,0.009440339,0.032606177,-0.0065962374,-0.062356077,0.02635815,0.020571033,0.018571014,-0.020650718,-0.013605392,-0.043728907,-0.025885323,-0.0021682244
0.04404544,0.0416764,0.0101460405,-0.0032841894,0.012377312,0.020555327,0.024804344,0.0013845566,0.03015505,0.021080954,-0.0059967455,0.010850508,0.030944725,0.039871514,0.03110364,0.022215484,0.055437174,0.013342732,0.053556357,0.008607173,0.021140398,0.021185825,0.041095745,0.05146699,0.022920752,0.04269676,0.061275598,0.063863546,0.013136784,0.013612368,0.053422097,0.054123785,0.035458844,0.041924607,0.046559643,0.03351442,0.045302026,0.04775505,0.035027433,0.02008837,0.05085329,-0.0023943072,0.016356092,-0.016218873,6.147267e-05,0.0381823,0.053985443,0.004438759,0.03734326,0.041993476,0.036441993,-0.004016614,0.030378887,0.06348422,0.05017713,0.02466459,0.044904884,0.05467764,0.056100246,0.029102895,-0.0015193678,0.03648928,0.05968207,0.039758064,0.015317208,0.07970723,0.14588144,0.038573273,0.03624207,0.04743097,0.0028679154,-0.028415129,-0.025957951,0.05482106,0.04243056,-0.0037255946,0.057273142,0.021650812,0.02164188,-0.0031973184,-0.002913691,0.019853601,0.00080009515,0.06398036,-0.0021711055,0.012970615,0.033664517,0.03439186,0.03638325,0.023537513,0.015105437,-0.006224753,0.008056471,-0.0034373454,0.10357064,0.11635153,0.053358056,-0.042888794,0.00059940567,0.029233992,0.0023941607,0.19128628,0.2457214,0.022803834,0.06930809,-0.061511934,-0.07599197,-0.026104927,-0.009900266,-0.008061259,0.011490205,0.0137280645,0.032443833,0.048359063,0.060156893,0.060778286,0.053227786,0.058594443,0.0013560108,0.04393846,0.09397826,0.008172801,0.032598786,0.13478827,0.106601074,0.1007162,0.016342875,0.09376895,0.009306117,0.13208225,0.2613766,0.15736629,0.07033484,-0.042584572,-0.14986037,-0.13557793,-0.00082733185,0.019169196,0.04597446,0.042836294,0.0004978627,0.020474752,0.01919986,0.016088195,0.05160335,-0.04680372,0.0049466738,0.10755887,0.0255587,-0.102093905,-0.1025105,0.06360267,0.07271876,0.11208282,0.022087345,-0.0013724855,-0.06617267,0.007549288,0.08306015,0.11581643,0.008494402,-0.027915198,-0.10101257,-0.06388799,-0.063278526,0.023155708,0.03271675,0.03199095,0.021788074,0.0078103435,-0.0074581155,0.11165753,0.14189292,0.05955891,0.07443826,0.067758195,0.04869588,-0.10002507,-0.082966425,-0.02633551,0.0027754335,0.067851305,-0.026629185,-0.08067102,-0.04206922,-0.10308251,-0.026671756,-0.0103775915,-0.055661537,0.024952112,0.04184557,-0.032523178,0.09571341,0.01798231,0.016738854,0.009590564,0.013892026,0.045175105,0.010056743,0.06323066,0.0417547,0.048596676,0.051830508,0.09321191,0.007910609,-0.17941976,-0.08060287,0.0364062,-0.032486837,0.0133052515,0.07672154,-0.007257635,0.056450874,-0.086662665,-0.05262274,-0.010769354,-0.010204947,-0.008136496,-0.034302548,0.020067798,0.06584694,9.8693505e-05,0.035306066,0.019564407,0.050284408,0.006601463,0.03261686,0.11648718,0.0068768132,-0.014346958,-0.04171999,-0.025422074,-0.031997852,-0.098323464,-0.025384398,-0.09396936,-0.09007628,-0.09401989,-0.010786279,-0.14053647,-0.064933375,-0.078332126,0.03360869,0.002959881,-0.015467704,0.09732475,0.12737735,-0.038252097,-0.019364066,0.06794778,0.066583775,0.0032490792,0.031268008,0.013985229,0.04524246,0.111905664,-0.052805074,-0.18564813,-0.07261264,-0.0654506,-0.16481368,-0.24144869,-0.2804223,-0.22653255,-0.29691985,-0.27113453,-0.2726391,-0.26102677,-0.10212049,-0.06791993,-0.11503814,-0.018733796,0.083065145,0.056164704,0.09947611,-0.0056209266,-0.03335429,0.07213718,0.05466397,0.03420135,0.042033598,0.004613686,0.029897952,0.09422133,-0.09993138,-0.08380261,-0.077231504,-0.30916113,-0.3918197,-0.4691434,-0.43499365,-0.32482907,-0.29928264,-0.3052292,-0.24190018,-0.19602694,-0.06517878,-0.11502122,-0.0017120709,0.07858377,0.15480232,0.06806628,0.18407251,-0.03370719,0.04229508,0.051210504,0.04141005,0.04824527,0.058345344,0.014040878,0.09711477,0.042707995,0.0039285277,-0.08906648,-0.07975975,-0.09836094,-0.30546132,-0.40327212,-0.23910484,-0.123806626,-0.095677815,-0.015920797,-0.00074565667,0.056463096,-0.059443608,0.061708897,0.042531345,0.1200629,0.100302145,-0.011770266,-0.04103489,-0.20887627,-0.04422608,0.058134086,0.043689746,-0.0063577783,0.0071661025,0.049884453,0.08351604,0.07838999,0.07521928,-0.11724224,-0.20334454,-0.07357201,-0.062140603,-0.029729709,0.05990383,0.1498727,0.23796172,0.20735829,0.21651842,0.1109489,0.031142218,-0.041910168,0.010379246,-0.021020258,0.056508213,-0.09189769,-0.18935105,-0.20977013,-0.03891008,0.042146098,0.0019017471,0.05068252,0.009562841,0.04662988,0.069363385,0.16831867,0.15698351,0.007170116,-0.06551794,-0.076150805,0.04895886,-0.031117985,0.12192073,0.20156173,0.1843526,0.19359173,0.22864924,0.09912286,0.07308334,-0.010761425,0.023469675,0.032427065,-0.002201768,-0.07682095,-0.14640926,-0.111705735,0.026342385,0.010912608,0.04038208,-0.0029130334,-0.0015255592,0.057252996,0.030102769,0.11519353,0.043339394,0.029638572,0.044156477,-0.049762946,-0.012740144,-0.20105201,-0.018727044,0.07765968,0.1377866,0.028357262,0.12010618,0.10100419,0.020814944,0.020941429,0.016596252,0.02414701,-0.0044136364,-0.06289632,-0.16427933,-0.03213922,0.041287754,0.04395904,0.01846792,-0.0057839216,-0.0018536726,0.04776949,0.01162805,0.09093272,0.043337237,0.011900919,-0.057040874,-0.15491404,-0.33997154,-0.45530027,-0.29149586,-0.18869752,-0.10076616,-0.0018682026,0.011439375,0.110962935,0.079359755,-0.031664297,0.008675037,0.080955215,0.14696746,-0.040144354,-0.17877749,-0.08823625,0.044681113,0.041697677,0.029154427,0.051915053,0.0061658523,0.066078454,0.034368906,0.16767657,0.100066856,0.013427863,-0.1426779,-0.20413297,-0.4613946,-0.3706154,-0.5269782,-0.52692837,-0.26968148,-0.1629806,-0.13463686,-0.046676565,0.072658174,0.022471204,0.102908105,0.225466,0.19652596,0.08812105,-0.0022770194,-0.13029416,0.029265232,0.019036908,0.0105931405,0.02497282,0.04878374,0.058571257,0.0434997,0.19420303,0.0075916997,-0.025378421,-0.11479004,-0.078078866,-0.08062106,-0.19608125,-0.45711988,-0.42955577,-0.4514363,-0.2946603,-0.20599538,-0.023566367,0.090345606,-0.044270605,0.08652957,0.16224957,0.15432417,0.1837745,0.08425224,-0.14417566,-0.056560554,-0.04025813,0.048286244,-0.0051820395,0.04428454,0.034295134,0.045331918,0.18126802,-0.03637045,0.005672863,0.14322697,0.18140972,0.23096524,0.13121212,-0.040537994,-0.07898986,-0.24789362,-0.2193452,-0.13685177,-0.037524655,0.071283795,0.019105917,0.045081593,0.11223,0.022754945,0.09471317,0.13465802,-0.08693984,-0.008657116,0.022948872,0.068414725,0.015541525,0.014851352,0.048610315,0.03435412,0.20330484,0.051132154,0.15454252,0.14701924,0.19852905,0.12963812,0.18588623,0.20507883,0.109780915,-0.07354487,-0.083891734,-0.085351236,-0.08769087,-0.031237634,0.0222591,-0.04143894,-0.10697548,-0.010791238,0.068137325,-0.011712887,0.027727932,0.102807835,0.046265192,0.044039328,0.028129067,0.013894246,0.036240462,0.055355683,0.075722694,0.070254356,0.12774758,0.026879214,0.028912645,-0.00093580765,0.08504306,0.19743954,0.11658173,0.09966259,-0.020639634,-0.035768718,-0.09848513,0.0005341882,0.01781976,-0.072279565,-0.15687934,0.0362878,0.08165127,-0.044555575,-0.050150298,0.08642005,0.005845366,0.005997223,0.030987976,-9.744367e-05,0.061572652,-0.027579298,0.050247394,-0.021512864,-0.046598528,-0.0040435814,0.09345116,-0.004124045,-0.055718504,0.16239692,0.0552635,0.11054682,0.036205444,-0.024964672,-0.10301036,-0.08744447,-0.08276325,-0.19715807,-0.085827455,-0.046120897,-0.022064406,-0.07525933,0.03439512,0.050278768,0.018847238,0.039953325,0.056152176,0.012445757,0.05847821,-0.014917983,0.077177554,-0.062876455,-0.082174905,-0.081562296,-0.016544476,0.016926827,-0.081373505,-0.009444293,0.03727746,-0.013197449,0.012673227,0.05955792,0.035150114,-0.012237948,-0.051113117,-0.046100087,0.047835916,0.021542478,-0.09234155,-0.028236939,0.0931843,0.028555915,-0.009139698,0.056057986,0.01796597,0.0032194224,-0.005626196,0.06840519,0.16071941,0.0858978,0.0022739018,-0.1247155,-0.026711699,-0.00780675,-0.04197603,-0.13335308,0.033355433,-0.05130111,-0.053175975,0.04131614,0.140803,0.07244652,0.040560387,0.056771792,0.09996242,0.03139238,-0.121748686,-0.10101882,0.04118067,0.025170673,0.03570464,0.0009097762,0.06274059,0.03048804,0.056806188,0.056720767,0.10716565,0.07858279,0.07154633,0.03429478,0.09970858,0.055593107,-0.029705636,-0.07508911,-0.06411674,-0.21312627,-0.10419628,0.09816167,0.11384547,-0.012894463,-0.0010052231,-0.033801094,-0.13149129,-0.07413794,-0.039511748,-0.030093934,0.0358927,0.045405187,-0.0020875798,0.041624233,0.00699439,0.011926033,-0.0020262082,0.0031693631,0.02318347,0.082039095,0.09216549,0.015012677,-0.04280049,0.010264084,-0.017719114,-0.02281685,-0.100759216,-0.05683996,0.06217955,0.21149665,0.11127891,0.030456139,-0.03394297,-0.022284891,-0.017758694,0.03586997,-0.004998362,0.0099401185,-0.009470445,0.0014191448,0.040151995,-9.70926e-06,-0.0025435544,0.011392724,-0.005259292,0.033702888,0.012764193,0.0039872173,0.052437566,0.025462415,-0.0070978077,0.021179311,0.0741607,0.018936185,-0.017722908,0.023496073,0.091385186,0.023337528,-0.009323691,0.012092064,0.05429623,0.014763925,0.037539613,0.06434747,0.009812577,0.02065881,0.03906822,0.052078497,0.042665485,-0.003216796,0.00879834,0.029827366,-8.889413e-05,-0.005773759,-0.0016366707,0.049412042,0.051667165,0.058149036,-0.0065800776,0.053580496,0.0080262255,0.0134385275,0.03339686,0.049800955,0.032795906,0.061175976,0.005551104,0.058142535,0.011447476,0.060210455,-0.0034621903,0.060035724,0.06048312,0.0062051956,0.010334622,0.018722491,0.027392251,0.034293056,0.040211424
0.04028409,0.06627622,0.0670845,0.066958755,0.005795826,0.052696012,0.011375382,0.028101781,0.03605355,0.040857498,0.010060793,0.028638992,0.067130096,0.052265376,0.045872867,0.010595355,0.071531735,0.05831012,0.036057953,0.04419507,0.02041538,0.01050362,0.030657142,0.05422312,0.030366672,0.017117456,0.05156517,0.0112965135,0.041964862,0.062180698,0.05964537,0.019070972,0.053636335,0.023343753,0.051054977,0.04564166,0.065585256,0.032999005,0.06067767,0.026920933,0.025959494,0.03778951,0.02773475,0.07508106,-0.0017310194,0.058951154,0.043781627,0.04806589,0.027323872,0.12129733,0.12491266,0.050072458,0.05792664,0.068563044,0.06765121,0.05625266,0.0563993,0.009134086,0.025655866,-0.0024964404,0.05961553,0.0032558544,0.002894415,0.03250151,0.03754313,0.050172236,0.02702641,0.011443642,-0.021251535,-0.034962267,0.015485778,0.11731375,0.08876664,0.15978275,0.18426311,0.19584934,0.17438385,0.11660303,0.12084013,0.070321225,0.047735713,0.005955813,0.06935578,0.039574508,0.034004204,0.028612394,0.011879582,-0.0031796065,0.029119743,0.05284013,0.0595761,0.012992161,0.066233374,0.032472488,-0.025727265,-0.053358663,-0.122990616,-0.1739517,-0.10805462,0.012680327,0.10979175,0.17450882,0.17767133,0.038644813,-0.030435484,0.08396338,0.06341115,0.047694765,0.026247425,-0.009641806,0.024638971,0.07134188,0.03862177,0.025969723,0.01833415,0.047347985,0.0656007,0.015495062,0.014025395,0.025056204,0.09119099,0.016900511,-0.058692843,-0.26687664,-0.3041975,-0.12075516,0.06230641,0.09268948,0.2635384,0.26288688,0.10363368,-0.014664969,-0.09453216,-0.004874446,-0.043791544,-0.15500659,-0.24104,-0.095145926,0.009813237,0.059026983,0.046342947,0.047601886,0.0115888575,0.03875713,0.061550315,0.050113015,0.039306194,0.04162009,0.040753454,-0.111880034,-0.22425924,-0.4116041,-0.25987744,0.006758629,0.020667821,0.071765,-0.0034240934,0.045994334,-0.028444018,0.040591035,0.019333543,-0.027261881,-0.15617412,-0.18541443,-0.17617656,-0.035713263,0.025122255,0.02347655,0.005792261,0.0413869,0.021173844,0.02341773,0.00095010723,0.039758034,0.016595563,0.031343125,-0.06248702,-0.33194622,-0.51569796,-0.36129922,-0.152081,-0.0044823205,0.10047255,0.14339943,-0.00044242915,0.13406135,0.011373322,-0.09763393,0.019082364,0.0064125787,-0.10502663,-0.15429233,-0.04819777,-0.005987215,0.04751032,0.067654386,0.03669279,0.05296995,0.05242452,0.03909102,-0.010351306,0.020878652,-0.051075976,-0.07764526,-0.25393802,-0.5041967,-0.45381224,-0.09137913,0.07575548,0.12290763,0.12808686,0.13813482,-0.12115176,-0.13632235,-0.05299728,-0.14644034,-0.117107116,-0.029898522,0.09900048,0.016024087,0.02146124,0.0020632627,0.0610023,0.03677299,0.029826453,0.06860699,0.03800877,-0.016968805,0.03770206,0.007712557,0.08364073,-0.046043288,-0.21971875,-0.4159732,-0.15119652,0.014565602,0.11941446,0.17862989,0.01094743,-0.13237594,-0.25593066,-0.37043974,-0.15417044,-0.121203646,-0.18495196,0.09002002,0.05233158,-0.006126088,0.1340143,0.06296868,0.032200295,0.06871638,0.037061818,0.06371124,0.0020095687,-0.010752462,0.011247585,0.029094985,-0.016985625,-0.1287221,-0.2576097,0.0041238777,0.016961414,0.056295577,0.009513633,0.05120655,-0.12295447,-0.15215327,-0.20292757,-0.43972564,-0.24705087,-0.12559144,-0.15882932,0.04664522,-0.040279925,0.0033776625,-0.013810322,0.015946923,-0.061607722,-0.017174399,0.05350584,0.05430624,0.054994646,0.038194783,0.047746364,0.0026544041,-0.09420829,-0.2989558,-0.13254921,0.06350809,0.014604712,0.0076978793,-0.062903576,0.020295992,-0.049396552,-0.2086537,-0.2553464,-0.1712006,-0.09298101,-0.11239038,-0.037820347,0.11689928,-0.03374556,-0.07992949,-0.20624924,-0.18926789,-0.027915312,-0.006916149,0.04568876,-0.005435609,0.058405202,0.012323431,-0.0223033,-0.028294723,-0.14371198,-0.19073439,-0.11993341,0.13979214,0.034492683,-0.08062288,0.02129619,0.02829922,0.028601231,-0.13694386,-0.14437836,-0.04432185,0.053458687,-0.003106431,0.09295643,0.08781448,0.015163542,-0.15863106,-0.15399206,-0.03958105,0.050553966,0.02360231,0.03003218,0.03952639,0.014886525,-0.039222293,0.014082925,-0.06369276,-0.15405086,-0.115861475,-0.007104591,0.123684764,0.018724328,0.042412713,0.003263745,0.040161677,0.14230232,-0.05294322,0.012697132,0.16379726,0.07193084,-0.03677255,0.142885,0.18482336,0.0012281835,0.0713008,0.0015762552,-0.101115376,-0.034585893,0.013459028,0.022821454,0.016191429,0.05141133,0.026819406,-0.07077251,-0.14219268,-0.14818445,-0.054210063,-0.10761654,0.050434038,0.110513896,0.112917334,-0.06551841,-0.039659373,0.115426496,-0.0290519,0.037262246,0.06883635,0.0011480051,-0.077471584,0.0013367261,0.17325692,-0.0100354245,0.052706614,-0.040811367,-0.09327019,-0.027272105,0.0018425273,0.024702314,0.03220686,0.05314485,0.02438876,-0.050158158,-0.09308159,-0.042068515,-0.105014384,-0.14047611,0.032486968,0.18836074,0.021451201,-0.08641829,0.1004497,0.06754013,-0.025674082,-0.038825057,-0.24285884,-0.15255618,-0.08938604,-0.051406685,0.05986729,0.03314637,0.018602133,0.005889963,0.07933747,0.04929025,0.06653677,0.048420705,0.031273376,0.06909803,0.025220443,-0.111209564,-0.044664357,0.027485255,0.010670583,-0.03214191,0.11019439,0.18815523,-0.019648857,-0.11419651,0.09598538,0.14765671,-0.10960605,-0.08504962,-0.14519708,-0.17153181,-0.08632317,-0.004142992,0.12760507,0.0114665255,0.0066119763,-0.0012097154,0.068444505,-0.02499879,0.06535801,0.01840454,0.07145427,0.028086046,0.02372075,-0.090818636,-0.036154423,0.06869519,-0.016128076,-0.0019417447,0.113914736,0.052261066,-0.11575649,-0.01621208,0.039444786,0.045876775,-0.13971658,0.011986293,-0.045932665,-0.11108108,-0.03447327,0.1089532,0.08828409,0.15098996,0.080852054,0.097410105,0.021883106,0.009849089,0.01327918,0.008028058,0.050629776,0.03605143,-0.0026066808,-0.052456237,-0.13040502,0.0023668555,0.05981504,0.060212757,0.012879343,0.032196127,-0.043182466,0.07347267,-0.012451782,0.05276667,0.050507512,0.08978403,-0.095934905,-0.12500714,0.05479372,0.19056006,0.115429364,0.08445062,0.124101415,0.033634525,-0.060035568,0.051625334,0.063274816,0.057412453,0.043225445,0.03771115,0.019013265,-0.028308349,-0.14923413,-0.073067956,0.10437345,0.049511403,0.12693368,-0.08421891,-0.051612917,0.060377598,0.11724642,0.06600055,0.112758316,0.054941535,-0.07210202,-0.16601075,-0.10502312,-0.036475025,0.0015670456,-0.1371083,-0.14120659,-0.14727867,0.03858014,0.040947594,0.0680282,0.003887067,0.040643502,0.02086378,-0.008751906,-0.00097576005,-0.094335936,-0.21335702,0.030417053,0.046513993,0.09823175,0.07211668,0.019887432,-0.05036353,0.007189847,-0.06705242,-0.004168752,-0.016142221,-0.08708045,-0.14130133,-0.11436714,-0.12031679,-0.021046687,-0.15440968,-0.15657145,-0.041500337,0.027732035,0.04367218,0.020777956,0.05505319,0.062430494,0.04525152,0.01820145,-0.039592832,-0.019595597,-0.18182404,-0.11175912,-0.2410858,-0.011396821,0.12088962,0.032655697,0.02669986,-0.05103296,-0.059940226,0.034575917,-0.09140924,-0.06600714,-0.09042467,-0.10789474,-0.011450736,0.01266836,-0.051471967,-0.036873173,-0.040094335,0.025416581,0.013474119,0.04004155,0.020680476,0.010459341,0.019499214,0.030717345,-0.02462312,-0.045736115,-0.08011864,-0.11107765,-0.14570832,-0.008806934,-0.01938246,-0.009859901,0.059430886,0.12319775,-0.053071514,-0.005873251,-0.006742068,-0.018210553,-0.040866554,-0.100824535,-0.074110314,-0.028401906,-0.0031768475,-0.0098879235,-0.017859895,0.003763491,-0.03906322,0.04078781,0.050062962,0.032722518,0.058317438,0.0016149684,-0.017885743,-0.042118564,-0.010898227,-0.04064152,-0.12663737,-0.113026045,-0.029599268,-0.04594535,0.018490104,0.07951964,0.06963978,0.06731975,0.0668282,-0.0069187335,-0.040696554,-0.05205018,-0.11882152,4.727472e-05,0.026350014,0.073160246,-0.015181246,0.046359587,0.032902583,0.014374154,0.0015420122,0.028914202,0.011536673,0.011510071,-0.017697295,0.028348153,0.06240702,0.17951693,0.108126976,-0.12350587,-0.06041709,-0.052056573,-0.022591485,0.12070514,0.107761934,0.030152017,0.05560023,-0.1982485,-0.073986225,0.014731493,0.026442437,0.057444174,0.04603407,-0.026224349,0.0055739125,0.050015267,0.06806162,0.01690167,0.016166626,0.008831542,0.05229588,0.03265983,-0.024957536,-0.0005423806,0.04263607,0.034458403,-0.021187317,-0.0138198985,-0.0664299,-0.002578024,-0.07886524,0.0016676796,0.13736156,0.20973442,0.1357114,-0.16349281,-0.100884885,-0.03666969,0.018061364,0.057800192,0.052119397,0.058576614,0.051608466,0.018240007,0.028219584,0.034497835,0.05499544,0.01345936,0.018185167,0.037599828,0.020376641,-0.09187555,-0.037729364,0.0020959077,0.04348156,-0.04735277,-0.06779183,-0.11506162,0.08100644,0.2309494,0.32084534,0.1849714,0.20447257,0.10055374,-0.027000643,0.065069996,0.04927384,-0.0025706135,0.043098267,0.051565263,0.028999738,0.014311738,0.02892875,0.006370115,0.057225786,0.025746323,0.071541674,0.06179353,0.015315227,0.007501151,0.043996688,0.0558844,0.046014372,0.028339032,0.089578405,-0.021630494,0.032363135,0.035765756,0.15060122,0.117643006,0.07864054,0.064872235,0.006782739,0.029262627,0.010314082,0.03649268,0.009960878,0.040544048,0.035229236,0.03026158,0.046234056,0.03082219,0.037701294,0.0076905554,0.061915465,0.028073404,0.023447953,0.039055727,0.034880303,0.0096801445,0.04911273,0.06506295,0.008026287,0.07325011,0.0852428,0.019957693,0.081343316,0.081074566,0.03377503,0.045507863,0.019370496,0.01693849,0.055947267,0.010700029,0.01054386,0.022234075,0.035691883,0.07083892,0.059189886,0.06624575
0.0231562,0.051955856,0.0057543996,0.0028686526,0.012884535,0.053508855,0.008998316,0.0141970385,0.057297755,0.011840999,0.041471638,0.014423499,0.018550642,0.055023044,0.05876313,0.031376474,0.04191135,0.03604736,0.04558648,-0.0008021387,0.034245268,0.059146572,0.024506299,0.016254589,0.0014257536,0.014066519,0.02783464,0.054708406,0.043042086,0.06052739,0.06076166,0.0050585745,0.029832492,0.026396122,0.056551024,0.0443054,0.043605424,0.01489781,0.028134434,0.03490638,0.015560659,0.05258417,0.06622416,0.039533105,0.06025897,0.046626266,0.019308444,0.066464975,0.05598176,0.024343792,0.024290256,0.030393416,0.036342688,0.018559434,0.038001187,0.0538513,0.033121936,0.057858262,0.0169998,0.022745015,0.029305708,0.012834355,0.05792273,0.026447508,0.042054597,0.07102355,0.07204784,0.03601217,0.08509191,0.034376524,0.03335839,0.010971528,0.03426803,0.05700974,0.09193356,0.05568905,0.036517594,0.06471806,0.033587296,0.06372266,0.056967705,0.043085106,0.002963314,-0.00041792967,0.043871745,0.04695086,0.010218378,0.029417519,0.057974372,0.033794098,0.035685096,0.021793682,0.025977323,0.011273485,-0.004676433,-0.016683728,-0.06369548,-0.16482167,-0.1309131,0.049200464,-0.02166336,-0.012205238,0.013554071,-0.007766755,-0.040410206,0.01168518,0.029387366,0.00028038502,0.059483204,0.009800378,0.025259594,0.0075494284,0.044374593,0.06125844,0.038612083,0.04202447,0.035371196,0.04000923,0.038851976,0.05888498,0.033588264,-0.028488217,-0.10923651,-0.24284105,-0.18921168,-0.03329277,-0.040405937,0.022965867,-0.08218547,-0.011865837,0.020876996,0.0068136407,-0.07060655,0.043389034,0.06423993,0.037193395,0.049646225,0.029943615,-0.0006455738,0.005045845,0.058690794,0.06454997,0.06676803,0.026382443,0.10394743,0.19569714,0.11176593,0.09785644,0.23948947,0.27900243,-0.040118925,-0.13165076,-0.020557145,0.058526758,0.009381635,-0.01731053,-0.0066702417,0.0068685305,0.1263774,0.11243508,-0.09064015,-0.00053543155,0.07549023,0.15038517,0.019372934,0.008002624,0.018510738,0.018780459,0.02388174,0.06277911,0.003281904,0.09491867,0.109105445,0.1376516,0.0059902794,-0.06825924,0.23955789,0.25773323,0.029931517,-0.048265915,0.10074697,-0.035728827,-0.09655962,-0.09396823,0.019006373,0.07128005,-0.12106439,0.04109192,-0.06977442,-0.004509523,-0.013149921,0.053436913,-0.031710945,-0.05841248,0.054983128,0.033290952,-0.0021222802,0.066078,0.03935645,0.0873314,0.097514115,0.0741292,0.0105168605,0.06719221,-0.06122186,0.096122175,0.025380146,-0.13950962,-0.051440172,0.051802546,-0.08682461,-0.09178153,-0.06894072,0.09044604,0.012656339,0.0011355932,0.049811885,0.11100991,0.04744442,0.046167843,-0.034640595,-0.031366635,0.007054628,0.034884386,0.026645763,0.04275456,0.06633049,0.072414674,0.115490094,0.16927254,0.11729676,0.0955645,-0.007948761,0.07599016,0.054484252,-0.05154227,0.02064316,0.03223289,0.09180383,0.18406571,0.041183237,0.034882795,-0.010542842,0.046728175,0.06876375,0.03616861,0.063360535,0.15989949,-0.0045418562,-0.012577648,-0.009334379,0.04463744,0.003633121,0.026908567,0.0041363123,0.052612368,0.11462024,0.25753808,0.15544,0.036331818,0.016033076,0.06472854,0.08872188,0.00773855,0.16758744,0.12543629,0.02940613,0.008035959,0.02161361,0.047495972,0.043291327,-0.019080367,0.07734482,0.08430743,0.035333615,0.110248156,-0.005066869,-0.010796882,-0.0052400148,0.030069182,0.057987396,0.062447015,0.1077562,0.034610093,0.11084956,0.21664983,0.14701997,0.024082474,0.08295885,0.11478512,0.094855905,0.10852445,0.025027856,-0.018605325,-0.406724,-0.11508851,-0.06945663,0.03818673,0.0500858,0.06773026,0.073569074,0.004243749,-0.08597202,-0.0060911216,-0.021843666,-0.017946526,0.01870896,0.010271188,0.05642576,0.042124774,0.03173421,0.034680054,0.024550024,0.1311547,-0.021780787,0.09025527,0.05901485,0.10013658,0.04933887,0.2777004,0.0744833,-0.34228095,-0.49858543,-0.096393645,-0.093286306,-0.08034624,-0.028932149,0.06083263,0.07569218,-0.05076982,-0.08914681,-0.029577544,-0.05651008,0.017824577,-0.010345967,0.047615893,0.0005553671,0.0025280553,0.050220888,0.00414373,-0.014475407,-0.02578448,-0.039411306,0.10241676,0.13875903,0.09934627,0.1356282,0.133655,-0.13388866,-0.67159826,-0.66983867,-0.07417438,0.05567652,-0.04842533,-0.055819415,-0.08542397,-0.088726215,-0.05214294,-0.11358187,-0.1555467,-0.021074286,0.038720254,0.036517937,0.011272814,0.023546172,0.06635491,0.07077429,0.046664994,-0.104871064,-0.032834314,0.09986504,0.10772713,0.14202629,0.11806176,0.012557091,-0.17314969,-0.54057074,-0.580241,-0.36348268,-0.049446173,0.05834459,-0.026072804,-0.016947513,-0.222342,-0.059620887,0.02718053,-0.16857633,-0.17898433,0.00325213,0.007098794,-0.0013762367,0.0059920545,0.010476496,0.01898145,0.07525108,0.06116572,-0.05828363,-0.046975303,-0.0056367246,0.02591107,-0.099175714,-0.12891687,-0.2759257,-0.50631875,-0.72629285,-0.43747425,-0.22166532,0.055773057,-0.03407076,-0.002732194,-0.10247588,-0.061294883,-0.11973793,0.047733918,-0.07681791,-0.1555901,0.0014840418,0.052156813,0.026452638,0.011940023,0.027759125,0.03400934,0.077330075,0.03768211,-0.10876567,-0.14316231,-0.23816705,-0.10378724,-0.36009178,-0.547946,-0.63074774,-0.5371646,-0.44192907,-0.16058621,-0.039038602,0.102006875,-0.0388782,-0.07904067,-0.011607479,-0.028058676,-0.058268983,0.13686065,-0.046703134,-0.09998604,0.10177925,0.00973635,0.008988605,0.0054439316,0.029250797,0.05917003,0.02891589,-0.012043409,-0.12753302,-0.2740881,-0.21768145,-0.460486,-0.5356548,-0.54222214,-0.44049948,-0.2749658,-0.087836295,-0.061260995,0.024579717,0.09488351,0.06446442,0.054091983,0.010848913,0.030655894,-0.079347536,0.03430929,-0.12713805,-0.059037875,0.10319579,0.08354635,0.020489018,0.0566005,-0.0045124954,0.05938365,-0.0074395007,-0.066463485,-0.19555354,-0.26816046,-0.45642552,-0.47064623,-0.34910688,-0.061082836,0.06935465,0.12542802,-0.07068726,-0.017464615,0.063463666,0.15744025,0.15638946,0.13383837,0.15556623,0.107156925,0.088177525,0.067384936,-0.06674712,0.004193504,0.06526865,0.07125956,0.033544347,0.05162587,0.03082821,0.02340068,0.025316484,-0.014918884,-0.11956408,-0.24315481,-0.2760188,-0.025135541,0.10389515,0.08296329,0.13030021,0.03551069,-0.036264013,0.046383034,0.060871217,0.13000785,0.09994642,0.08200877,0.11256091,-0.024834463,0.060592227,-0.04810476,-0.0373334,-0.021507764,0.053371444,0.049345784,0.057561737,0.003883059,-0.0018274541,0.04360185,0.05449503,-0.023930635,-0.07363214,-0.22072732,-0.095062286,0.0789989,0.19511756,0.05429299,0.0963855,0.06372034,0.02386269,0.043284085,0.07530797,0.04126162,0.07128829,0.034542143,-0.071105294,0.016038127,0.017354231,-0.10563004,-0.06876599,0.0123503795,0.07562755,0.027161723,0.010502999,0.05949692,0.0033314417,0.020170711,0.046858836,0.09077194,-0.053384457,-0.15738326,0.04874669,0.08986076,0.030100966,0.017092507,0.15844361,0.17170592,0.14307615,0.036813755,0.0720022,0.135189,0.1082921,-0.005771563,-0.06527745,-0.01823654,0.087935425,-0.015624948,-0.029693928,0.070004694,0.04778093,-0.011447727,0.030998155,0.047979377,0.018421855,0.02586502,0.09305296,0.079062976,-0.018809784,-0.014770405,0.0033212265,-0.103718124,-0.09691877,0.042919282,0.1948035,0.10472475,0.09371667,0.0958825,0.11195601,0.16453578,0.24716729,0.029588569,0.11989335,0.20190176,0.10074822,0.014750043,-0.016114248,0.14446048,0.09305411,0.052203882,0.007659716,0.02937926,0.0081093665,0.06452257,0.07912226,0.0077083814,0.043742124,0.11557224,0.12067175,0.08198003,0.0916492,0.17410977,0.18672186,0.15250124,0.009349896,0.10944476,0.02268296,0.06405727,0.07730352,0.106218874,0.12913483,0.06793621,0.049699593,-0.02596417,0.088248245,0.13096006,0.08828969,0.032515503,0.06221662,0.059601273,0.023117343,0.047316007,0.019226706,-0.017180836,-0.014133819,0.03843795,0.24501647,0.22801177,0.04782046,0.08587214,-0.0037428658,0.017131785,-0.01101922,0.066733375,-0.016615108,0.061815947,-0.0335678,-0.017692765,-0.0672377,-0.027580738,-9.5665884e-05,0.056586813,0.118425414,0.11933944,0.060783584,0.03913964,0.020352826,0.001996707,0.0038212382,-0.003487117,0.059259973,0.044936415,0.088733986,0.13600108,0.08314445,-0.050018728,0.07884722,0.1254906,-0.02745758,0.09641108,0.07002029,0.013214967,-0.025483284,-0.016585462,-0.15893222,0.057714198,-0.048661474,-0.02982965,-0.10858088,0.038406808,0.045866054,0.10888004,0.08535515,0.029237503,0.061227057,0.032220528,0.014404656,0.05084125,0.013009336,0.047535665,0.009652349,-0.10073617,-0.056744408,-0.00963713,0.12782241,0.13677382,-0.0450611,-0.039006054,0.13111918,0.039010957,0.00044077754,-0.07117618,-0.041484896,-0.029962996,-0.025675941,-0.14551845,-0.100528866,-0.006465819,0.043634005,0.0045122313,0.061241563,0.04545106,0.025825894,-6.543058e-05,0.054738395,-0.0028823602,0.06188942,0.034259945,-0.034447372,-0.08635368,-0.058403052,0.10432258,0.1752936,0.16909827,-0.15103182,-0.17280687,-0.10985262,0.21839374,0.17420925,-0.006920232,0.006116123,0.090443365,0.15920486,0.0065776818,-0.0038771236,-0.02082198,0.022433514,0.04790689,0.026983682,0.06458423,0.035402097,0.06446468,0.03974943,0.06200635,0.03481526,0.05071398,0.05884253,0.06661045,0.03652085,0.04931968,0.057959437,0.0753761,0.07512764,0.08168201,0.052814,0.058030024,0.028230961,0.032348234,0.06392352,0.05979349,0.06625405,0.011776115,0.021962687,0.027092682,0.03610682,0.06148599,0.040822245,0.053310573,0.03801044,0.0250822
0.056989677,0.033694983,0.05845721,0.034243308,0.051804088,0.017103406,0.034553558,0.0679523,0.026341617,0.0070930365,0.07010876,0.07139722,0.054458365,0.014646608,0.015390289,0.058357038,0.008839918,0.04049883,0.058038026,0.009290491,0.028051201,0.040994227,0.0014916378,0.039015207,0.008832924,0.0042240988,0.049320318,0.03502176,0.025791261,0.04232292,0.051717393,0.037985824,0.041370124,0.012773681,0.028367616,0.059616223,0.026981426,0.061393917,0.028328236,0.03101004,0.0697032,0.07358966,0.034599613,0.021393197,0.056426506,0.07104306,0.008333047,0.010208687,0.03299095,0.070077226,0.046796795,0.057625793,0.0514561,0.058872797,0.051780924,0.049656007,0.057510577,0.0704373,0.034778737,0.029863901,0.012298863,0.007304563,0.052310944,0.020652914,0.06894935,0.069059946,0.02628871,0.055523608,0.11142456,0.08012624,0.06944419,0.0831811,0.044094425,0.051164903,-0.0043687476,-0.019653227,0.0134731075,0.011871156,0.03641605,0.030931216,0.024170006,0.060769305,0.024021693,0.033000853,0.028041827,0.00901394,0.04704851,0.056764826,0.009507426,0.028510144,0.06269453,0.0283225,0.06300733,0.05783457,0.06420162,0.28008306,0.29504657,0.21008432,0.21725224,0.14646356,0.18029764,0.05294889,-0.093824305,-0.13011974,-0.14061528,-0.020105029,0.06805913,0.031674523,0.049374662,0.0137770455,0.0066362713,0.023738503,0.0646085,0.071253546,0.078267284,0.029374285,0.009146708,0.006510776,0.0849908,0.051687628,0.039996434,0.031452138,0.10839054,0.29774573,0.33980745,0.3296971,0.469158,0.2603668,0.18119705,-0.014857226,-0.16563784,-0.14839205,0.05806979,0.010847737,0.04541012,-0.06785937,-0.046134897,-0.032766953,0.03341416,0.028745065,0.04504086,0.0041429806,0.021229591,0.054078825,0.05577595,0.04731444,0.033505213,0.08434068,-0.012386748,-0.09557352,-0.02867295,0.091231465,0.08832284,0.14022304,0.10314955,0.04700101,0.029462557,-0.021267915,0.08567942,0.1481324,0.073335506,-0.03878231,-0.041886292,-0.050603088,-0.035741836,0.0066442387,0.046612464,0.023518506,0.04062278,0.01213421,0.031947035,0.052893225,0.035580415,0.010905187,0.056061924,-0.014996575,-0.078377485,-0.17245357,-0.16357438,-0.17958076,-0.32874337,-0.2270694,-0.15492395,-0.15042432,0.032893572,0.10104714,0.12878211,-0.039226435,-0.12118297,-0.16132063,-0.2600495,-0.16748092,-0.26068947,-0.06307637,0.0048551466,0.03897169,0.010311829,0.0377447,0.037266966,0.046096966,0.060830813,-0.008291767,-0.03846987,-0.06673451,-0.15649141,-0.31467286,-0.39842567,-0.37869564,-0.35831553,-0.20013213,-0.07890803,0.09643402,0.15774815,0.078531995,0.21369581,0.12804838,0.05474319,0.004652555,-0.05251762,-0.018204438,-0.25548396,-0.090047814,0.030039752,0.06864833,0.04665341,0.020159302,0.07314413,0.045640603,0.04420496,-0.05105281,-0.13683435,-0.15256199,-0.2786509,-0.47684675,-0.23566142,-0.14023107,-0.22796893,-0.0065355673,0.07125653,0.11361853,0.1590742,0.12328956,0.14310506,0.16130315,-0.011016466,0.025646571,0.059381615,0.0634889,-0.1513266,-0.16623147,0.039409976,0.058005705,0.04033556,0.046159375,0.012893876,0.039838906,-0.04084503,-0.115831025,-0.24362186,-0.23738426,-0.27904367,-0.16991368,-0.017423261,-0.07841792,0.014727313,0.16954672,0.057825834,0.15121858,0.11199035,-0.0071516144,0.017164461,-0.036417127,0.0021749972,0.04583709,0.18366379,0.091622464,-0.25904918,-0.17459483,0.04599569,-0.018945469,0.0081869075,-0.00055217266,0.048121665,-0.0020572015,-0.060637556,-0.21329796,-0.2663963,-0.2682882,-0.011464013,0.046381198,0.007758126,0.10585303,0.21054505,0.12977093,0.15377197,0.08475427,-0.007131064,-0.12363417,-0.024482096,-0.0048917043,0.11281319,0.053289954,0.20632897,0.12531379,-0.10075063,-0.1654822,0.0405177,0.0164743,0.023185745,0.04951184,0.009609722,-0.02121023,0.00990136,-0.041182406,-0.12031564,0.037600286,0.26108366,0.108055934,0.065755576,0.09943051,0.03455505,-0.06334579,-0.051373675,-0.068023704,-0.09031479,-0.12571876,0.0059050047,0.11038412,0.21681654,0.09909455,0.0995013,-0.046135154,-0.019329928,0.030712197,0.039880574,0.026591215,0.016927708,0.050853,0.06033022,0.0326102,0.06939386,0.12825373,0.0051271175,0.09690788,0.07909033,0.14407809,-0.06728347,-0.12636581,-0.28233612,-0.363685,-0.16544916,0.07274015,0.13264278,0.13591784,0.107857674,0.14039227,0.16169158,0.1112432,-0.09753714,0.02197736,-0.08363157,0.0140313655,-0.011287721,0.021778278,0.009532045,0.0327241,0.043088138,-0.016741375,0.10620062,0.14842156,-0.0715,0.026919993,0.01669828,-0.053803395,-0.20771019,-0.21874072,-0.25295314,-0.008752064,0.22019637,0.3207815,0.1838104,0.07693122,0.046722163,0.083493195,-0.08635336,-0.025472254,-0.12049465,-0.12104858,-0.07412991,0.007454569,0.05746443,0.020529937,0.055123635,0.031576537,-0.0033338338,-0.022590693,0.008830253,-0.014937337,-0.061773743,-0.023456696,-0.09259316,-0.14084822,-0.16783102,-0.06602606,-0.014040602,0.18835452,0.25452766,0.13137454,0.06570556,0.08205721,0.11930415,-0.044245187,-0.22881307,-0.16808634,-0.2261306,-0.16815329,-0.062995315,0.017047012,0.02393293,0.012433792,0.017278925,0.045952734,0.040647473,-0.05172956,-0.04644774,-0.035780672,-0.13983534,-0.12765726,0.025647622,-0.04174248,-0.08073848,-0.076072045,0.08362229,0.28613424,0.08840921,-0.01950655,-0.07420576,0.04416195,0.08473974,0.023381919,-0.21891055,-0.21916349,-0.19209534,-0.16169818,0.013973544,0.025640264,0.058433488,0.049141347,0.019626254,0.039821353,0.04782625,-0.025513772,-0.062151138,0.032490782,0.013354026,0.0070187827,0.08627392,0.14227152,0.18557274,0.16756402,0.13059449,0.13929002,-0.14991505,-0.2420807,-0.09644655,-0.11699304,-0.025410825,-0.051934768,-0.2369266,-0.23010185,-0.19400287,-0.06287279,-0.015827494,0.054862004,0.06483052,0.047667805,0.01634108,0.037876837,-0.018549742,0.006528992,-0.041218672,0.05580038,-0.094674446,0.04441424,0.06465351,0.09231182,0.12792495,0.1455549,0.24454817,0.008677718,-0.13068551,-0.18694246,-0.07620241,-0.12931874,-0.15846512,-0.00042889704,-0.24182698,-0.11456418,-0.16307893,-0.1436966,0.0544712,0.19590509,0.030703466,0.03322822,0.05748163,0.033148218,0.03191548,0.042293977,0.13550642,0.12482681,0.034876958,0.07169594,0.14079404,0.15172501,0.13243806,0.04091569,-0.021616086,-0.07628836,-0.030261753,0.0068598823,-0.059601054,-0.1131113,-0.09203669,-0.047917116,-0.19756599,-0.07606782,0.06481472,0.10324746,0.13658,0.13836294,0.020466667,0.029565258,0.020875894,0.050656065,-0.0012297131,0.036250096,0.155359,0.0380808,0.04807171,0.05460749,0.061812006,0.0676892,0.030712094,-0.086461306,-0.13296603,-0.059060253,0.03543304,0.00039544213,0.04568016,-0.024336454,-0.011138006,0.052238543,-0.0654516,0.021350423,0.18954384,0.15281995,0.14407024,0.10521322,0.021260425,0.05937354,0.029127866,0.04216578,0.027716607,0.07457105,0.25676435,0.051814042,-0.023815025,0.075844064,0.012252763,-0.04275912,-0.108096324,-0.12279552,-0.057424657,0.044223182,0.047436256,0.12151537,0.079624884,-0.02396382,-0.02496678,0.10592692,0.07387122,0.17985457,0.29078805,0.17425223,0.13176405,0.10041703,0.04906292,0.06521953,0.01645793,0.024950033,0.05445513,0.063562624,0.12069806,-0.05957687,-0.024288982,0.080096446,0.014263998,0.063042164,0.07607374,-0.057755016,0.008203229,0.14869872,0.032166086,0.040818904,0.05674258,0.07794706,0.14263012,0.099600054,0.14410704,0.27135628,0.28545803,0.17002606,0.08281085,0.057499126,0.0010830315,0.027631491,0.03990964,0.027124513,0.057082914,0.054556422,0.13025522,0.050779242,-0.23847388,-0.20140672,-0.033125114,-0.009025616,0.061735634,-0.047375232,-0.015055418,0.053978074,0.02544433,-0.040096354,-0.043008856,0.15421921,0.059090693,0.055034086,0.11632228,0.19641031,0.13916786,0.068929635,0.04690671,0.034758504,0.05667963,0.0379134,0.06882846,0.055578798,0.054345723,0.031147368,0.05812556,-0.039469775,-0.2171348,-0.21227418,-0.023466846,-0.0074278815,-0.11019592,-0.23072256,-0.09066979,0.023992307,-0.17200267,-0.100888334,-0.041652035,0.041600943,-0.023681877,-0.009363904,-0.034951445,0.08928153,0.2115513,0.06210771,0.0069542257,0.029047033,0.05503292,0.046107598,0.008289473,0.041302413,0.050691836,-0.0018640129,-0.019774403,-0.1353546,-0.14679623,-0.12711076,0.01882835,0.081068195,0.044880528,-0.12938543,-0.0010634495,-0.07418872,-0.10372956,-0.053624064,0.032390382,0.028794277,-0.032981772,-0.10365852,-0.004950681,0.12490708,0.17957486,0.07648145,0.04658203,0.034924664,0.07113459,0.057027414,0.022992527,0.044088464,0.0019656853,0.017190065,-0.007522956,0.0047400403,0.057509407,0.12118479,0.23436797,0.13208668,-0.030888263,-0.067345865,0.1175901,0.118199416,0.19267473,0.009218383,0.13937615,0.14324014,0.10209541,0.15530676,0.10065821,0.10316075,0.06871264,0.058133326,0.051584385,0.07205588,0.064083785,0.006374422,0.054355152,0.020314645,0.05608753,0.026817966,0.023461731,0.033474427,0.09909274,0.11724703,0.1121498,0.07948652,-0.060921095,-0.0506926,0.0940141,0.104564466,0.29692262,0.24762283,0.31559482,0.111783065,0.14811297,0.14517643,0.12682141,0.100235626,0.036673076,0.05723782,0.042759392,0.014136493,0.042683195,0.009137843,0.05931361,0.025029229,0.023810802,0.009488901,0.04801838,0.045673523,0.023535155,0.03559835,0.03329226,0.032390695,0.053700842,0.07120503,0.07092414,0.07239382,0.0294471,0.030162323,0.016468648,0.021369593,0.03068736,0.0058793244,0.06995959,0.051611513,0.0073691807,0.03139289,0.049091544,0.029794779,0.0646261,0.04819421
0.002859441,0.047140837,0.04614138,0.014765984,0.07241074,0.05027292,0.0740496,0.02340097,0.04451281,0.054612413,0.0040092804,0.017601348,0.017620228,0.0420997,0.058356836,0.0693323,0.044108517,0.011739234,0.050932966,0.05523762,0.063461296,0.011107058,0.012944098,0.03045541,0.05316773,0.025283594,0.057447262,0.008201664,0.062390037,0.04282909,0.015335149,0.07174445,0.008120043,0.0034669433,0.024627648,0.045003757,0.03918819,0.061023198,0.045700442,0.025398634,0.026963009,0.057545975,0.06058123,0.025448913,-0.023018224,0.0367229,0.001976439,0.05786559,0.005695497,0.05699976,0.10052703,0.030842606,0.060090862,0.050885357,0.026303574,0.016952801,0.052643433,0.057858355,0.035941377,0.02450046,0.05629355,0.034071766,0.015217374,0.037370037,-0.019094428,0.011576625,-4.6655245e-05,-0.017576948,0.02548428,0.05680011,0.067014545,0.044858523,-0.0037220465,-0.038323652,-0.0120175425,0.041026782,0.045764178,0.03765055,0.095536485,0.033443015,0.022928815,0.037622422,0.02985255,0.050628036,0.021278858,0.020776749,0.051954597,0.0637817,0.035702687,0.04507606,0.037545115,-0.00852474,-0.06343666,-0.06588481,-0.026537657,0.0074869827,0.04796755,-0.0983095,0.07173524,0.08294741,-0.0806209,-0.07272321,-0.0075471695,0.019694565,0.085319094,0.1359209,0.118752286,-0.027492033,-0.023509681,0.07402844,0.039256018,0.029563896,0.008560832,0.008423009,0.04648779,0.068984635,0.064016536,0.031760097,-0.08319591,-0.16746928,-0.25195074,-0.20238166,-0.17772043,-0.055968326,-0.062184643,-0.09820885,-0.012071,0.16008791,0.13882653,-0.0041215457,-0.0665001,-0.16641839,-0.11260019,-0.10889389,0.006165517,0.17261349,0.16218776,0.13796031,0.061955262,0.005550471,0.005250789,0.019115273,0.06516017,0.051587086,-0.0032533647,-0.005450048,-0.070823155,-0.17271468,-0.2449944,-0.08976807,-0.02599723,0.21339478,0.22508053,0.1124159,0.060618427,-0.019391276,-0.13669033,-0.05471382,-0.18115568,-0.14388824,-0.11645175,-0.08921124,-0.0033412413,-0.043753088,0.035949394,0.07176025,0.0028680868,0.03941735,0.0586188,0.0048053316,0.030633394,0.02028878,0.019072067,-0.02481518,-0.07939148,-0.09041983,-0.16540334,-0.06103338,0.046673786,0.1722536,0.18268293,0.08622434,0.057618722,-0.13010715,-0.18010458,-0.1405495,-0.09798104,0.041667253,0.06813912,0.03785416,0.07377657,0.08911468,0.071954176,0.08856602,0.07619591,0.001511312,0.01408752,0.019568304,0.07299565,0.09824477,-0.03108959,-0.10688224,-0.10881857,-0.20677711,-0.19070065,0.048723795,0.20682532,0.19679223,0.09534407,0.057192832,-0.041367546,-0.07705392,-0.14803797,0.015171156,0.087002635,0.11813371,0.1490157,0.0316455,0.11221082,0.17384186,0.1142852,0.014227625,0.06278353,0.017662177,0.004013221,0.04814478,0.059811175,0.020462891,-0.093899384,-0.08098739,0.036460806,-0.18317774,-0.1088911,0.0014653581,0.08545517,0.10034574,0.17684557,-0.028017346,-0.12394212,-0.024816208,0.041055575,0.02533524,0.08853717,0.13611397,0.24986033,0.18392159,0.030206006,0.12952949,0.31145972,0.24107957,0.050674316,0.067928575,0.038059533,0.010215292,0.0427444,-0.028092928,-0.040204596,-0.06382575,-0.0017450836,-0.20095378,-0.14854105,-0.0047408766,-0.030124666,0.16169672,0.09424153,-0.10423772,-0.22683483,-0.11555672,0.02034227,-0.0052024005,-0.006458451,0.13850266,0.14176014,0.15576941,0.026992526,0.11390689,0.39063418,0.26297244,0.07941485,0.022255268,0.07229734,0.06407248,0.0682238,0.055772897,-0.056301143,-0.057661388,-0.066787206,-0.10470461,-0.07797989,0.012762167,0.07193543,0.2401241,0.13873254,-0.16091342,-0.2900506,-0.13502383,-0.053358894,-0.16867013,-0.16096826,-0.074620716,-0.11226421,-0.0014393169,0.0065408926,-0.000770143,0.1772074,0.08270771,0.045086563,0.014223548,0.07133175,0.039555848,0.060769126,0.0313053,-0.07274276,-0.08615645,-0.08002583,0.012979339,-0.16242461,-0.0587585,0.076140866,0.16098635,0.21234079,-0.14330482,-0.19678132,-0.15508284,-0.09890599,-0.079036295,-0.13032617,-0.08697455,-0.19787773,-0.015091704,-0.046443883,0.011325532,0.12817906,0.09123168,0.054761674,0.018864121,0.0740403,0.0440261,0.059005775,0.03326022,-0.15755455,-0.10846694,-0.1333454,-0.063776754,-0.08857866,-0.077039555,0.031318646,0.20589945,0.2228907,0.059669822,-0.16989067,-0.023846846,0.038550857,0.0036534334,-0.12230547,-0.13702193,-0.058721997,-0.07280445,0.011832368,0.007430753,0.084631115,0.034013,0.04559883,0.054329284,0.048040308,0.027835835,0.029963868,-0.02010904,-0.1762576,-0.16187203,-0.22542241,-0.22829628,-0.14471024,-0.0140512865,0.1993358,0.2635862,0.24433918,0.014300111,-0.05646549,0.11399416,0.108214706,-0.02171865,-0.13065383,-0.04718286,0.051138207,-0.026554909,0.0008931508,-0.10824949,-0.04293487,-0.025615212,0.022744037,0.036606234,0.0056156227,0.07253455,0.019369975,-0.0011825723,-0.11182582,-0.1277784,-0.23868369,-0.18823163,-0.22071715,0.021847287,0.20828445,0.0993987,0.07307035,0.014077007,0.118344165,0.0685399,0.019797264,0.043804295,0.026290655,-0.025324056,0.007713579,0.13472003,0.061447706,0.08035505,0.0108545795,-0.06502402,0.038537167,0.023698766,0.06702752,0.060922064,0.033546843,0.05833929,-0.030938795,-0.0616851,-0.15875524,-0.10308371,-0.11038373,0.008330194,0.07345408,0.023736767,0.022227498,-0.08647309,-0.029993614,-0.093157865,-0.025808906,0.043549903,0.022453032,-0.109513,-0.11429959,-0.22187562,-0.19897495,-0.16112113,-0.0558654,0.023954948,-0.029160775,0.027269017,0.05326251,0.05697378,-0.012460072,0.037445515,-0.07840828,-0.044435475,-0.054967035,-0.025132645,-0.03208883,0.007326243,-0.025680616,0.05503565,-0.053403474,-0.124814674,-0.21017908,-0.21175459,-0.011915914,0.05508477,-0.08326912,-0.16957586,-0.2933109,-0.3071501,-0.24154462,-0.14726071,-0.068695895,-0.066446036,-0.07179914,0.021945195,0.070016526,0.05843643,0.04204718,-0.05875195,-0.09414949,-0.06875549,0.18350163,0.08623201,-0.047815245,0.07936185,0.14992628,0.045089964,-0.13967095,-0.15827152,-0.1303216,-0.030964637,0.13454612,0.058482897,-0.06925859,-0.15406054,-0.04218111,-0.19064386,-0.16024148,-0.07474849,-0.03603424,-0.04088964,-0.0070702117,0.0062187156,0.027566945,0.04925526,0.03985222,-0.06899042,-0.10467688,0.01943921,0.16473483,0.02408958,-0.026233204,-0.026478821,0.0024597717,0.030925866,0.048346832,0.08006299,-0.033825036,-0.06257194,0.113504805,0.13728379,-0.08406147,-0.07623552,-0.043509822,-0.17850606,-0.29699948,-0.20634574,-0.08007741,-0.027938072,0.054710466,0.005343604,0.014381698,0.028883355,0.02868529,-0.008309967,-0.07596137,0.025065208,0.12075109,-0.092255436,-0.051146414,-0.08574777,-0.08608961,-0.043871567,0.20635773,0.08205374,-0.11784171,-0.034446344,0.039650515,0.070591845,0.0068650963,0.08054991,-0.100615695,-0.14795265,-0.20604458,-0.08088753,-0.045480557,-0.074754894,0.019021794,0.028891437,0.04800041,0.022080235,0.05800588,-0.09155546,-0.24613065,-0.0704271,0.0006320608,-0.1100299,-0.052059647,-0.11229632,-0.050522927,0.07097618,0.1900437,-0.059707426,-0.092490554,-0.07403089,0.0131487325,0.019539459,-0.010361093,0.130843,-0.17985795,-0.22101721,-0.046169728,0.089844525,0.01975308,0.049156316,0.04717589,0.032930136,0.07298637,0.04857923,0.035027403,-0.05678249,-0.28101143,-0.22810742,-0.06638006,-0.07251112,-0.060441837,0.02312917,-0.014824351,0.12044305,0.13358465,0.063466154,-0.03025453,-0.045137208,-0.04722075,-0.011766091,-0.056366354,-0.08310546,-0.21971434,-0.18115774,-0.053691547,0.050146703,0.046550784,0.032715745,0.032669395,0.045919135,0.0291236,0.0671627,0.0426081,0.004844325,-0.14588188,-0.17950426,-0.17406382,-0.051213063,-0.12092606,-0.034106065,-0.0029164844,0.16013804,0.112752184,0.14190982,0.044468366,0.07776971,0.044252444,-0.09479244,-0.0636152,-0.09349099,-0.21390858,-0.18157552,-0.06546206,0.014742091,0.05698221,-0.002917755,0.067991726,0.028896939,0.02053155,0.007906013,0.036355123,0.030395225,-0.039627913,-0.12180283,-0.02947132,0.008114956,-0.035052914,-0.051745187,0.026119296,0.010613504,0.18322995,0.15416606,0.14773406,0.03894917,0.017939182,-0.040738165,-0.059935592,-0.105205335,-0.12149615,-0.051002517,-0.0229229,0.013186368,-0.0017324608,0.005442031,0.013635163,0.0586731,0.030592538,0.027280923,0.06526746,0.029944863,0.037315153,0.031400066,-0.16658261,-0.16537064,-0.106485836,-0.11737143,0.011877334,-0.096316494,0.07378623,0.1616834,0.029455114,-0.06338523,-0.009284451,-0.24939391,-0.15661508,-0.12273158,-0.026909266,-0.050751522,-0.04940313,0.019227631,-0.0057286643,0.030336874,0.055966962,0.023781259,0.0037368704,0.060847536,0.03989682,0.055198483,-8.528745e-05,-0.04128114,-0.07509793,-0.12413092,-0.1780481,-0.113802835,-0.12832725,-0.012284199,0.04551223,-0.046597827,-0.07738141,-0.105514966,-0.014277799,-0.049149025,-0.07741654,0.006814422,0.0077131283,0.066625774,0.07748749,0.039044064,0.015184655,0.004031074,0.018003503,0.010093708,0.045276478,0.021603469,0.0057932753,0.04461094,0.035845663,0.019398276,-0.03852907,0.03911961,0.036644686,0.10029701,-0.0313188,-0.08888184,0.103608884,0.0571092,-0.12405063,-0.011365143,0.1089163,0.05443847,0.041033927,0.05528696,0.013191429,0.024092652,0.066309616,0.0075102593,0.06394824,0.020102132,0.058718026,0.066751085,0.05548048,0.061653636,0.031928454,0.0039019668,0.06708243,0.067586504,0.028563002,0.022021282,0.026743723,0.008059136,0.026846543,0.019405168,0.05323537,0.009553806,0.043456987,0.016388511,0.038049977,0.014120867,0.052612886,0.04594174,0.026109729,0.021796249,0.061530948,0.0054937466,0.026083354,0.049302265,0.04821814,0.06289613
